{"learner":{"attributes":{"scikit_learn":"{\"_estimator_type\": \"regressor\"}"},"feature_names":[],"feature_types":[],"gradient_booster":{"model":{"gbtree_model_param":{"num_parallel_tree":"1","num_trees":"200"},"iteration_indptr":[0,1,2,3,4,5,6,7,8,9,10,11,12,13,14,15,16,17,18,19,20,21,22,23,24,25,26,27,28,29,30,31,32,33,34,35,36,37,38,39,40,41,42,43,44,45,46,47,48,49,50,51,52,53,54,55,56,57,58,59,60,61,62,63,64,65,66,67,68,69,70,71,72,73,74,75,76,77,78,79,80,81,82,83,84,85,86,87,88,89,90,91,92,93,94,95,96,97,98,99,100,101,102,103,104,105,106,107,108,109,110,111,112,113,114,115,116,117,118,119,120,121,122,123,124,125,126,127,128,129,130,131,132,133,134,135,136,137,138,139,140,141,142,143,144,145,146,147,148,149,150,151,152,153,154,155,156,157,158,159,160,161,162,163,164,165,166,167,168,169,170,171,172,173,174,175,176,177,178,179,180,181,182,183,184,185,186,187,188,189,190,191,192,193,194,195,196,197,198,199,200],"tree_info":[0,0,0,0,0,0,0,0,0,0,0,0,0,0,0,0,0,0,0,0,0,0,0,0,0,0,0,0,0,0,0,0,0,0,0,0,0,0,0,0,0,0,0,0,0,0,0,0,0,0,0,0,0,0,0,0,0,0,0,0,0,0,0,0,0,0,0,0,0,0,0,0,0,0,0,0,0,0,0,0,0,0,0,0,0,0,0,0,0,0,0,0,0,0,0,0,0,0,0,0,0,0,0,0,0,0,0,0,0,0,0,0,0,0,0,0,0,0,0,0,0,0,0,0,0,0,0,0,0,0,0,0,0,0,0,0,0,0,0,0,0,0,0,0,0,0,0,0,0,0,0,0,0,0,0,0,0,0,0,0,0,0,0,0,0,0,0,0,0,0,0,0,0,0,0,0,0,0,0,0,0,0,0,0,0,0,0,0,0,0,0,0,0,0,0,0,0,0,0,0],"trees":[{"base_weights":[6.8547174E-6,-3.1610864E2,5.252665E2,-4.1285147E2,-1.9707478E2,3.562914E2,6.553288E2,-4.4096684E1,-3.643542E1,-2.2113459E1,-1.3656296E-1,1.6947117E1,3.994705E1,5.7464565E1,7.596597E1],"categories":[],"categories_nodes":[],"categories_segments":[],"categories_sizes":[],"default_left":[0,0,0,0,0,0,0,0,0,0,0,0,0,0,0],"id":0,"left_children":[1,3,5,7,9,11,13,-1,-1,-1,-1,-1,-1,-1,-1],"loss_changes":[3.239465E8,1.3944736E7,1.5875872E7,7.54256E5,2.580078E6,2.52172E6,3.04E6,0E0,0E0,0E0,0E0,0E0,0E0,0E0,0E0],"parents":[2147483647,0,0,1,1,2,2,3,3,4,4,5,5,6,6],"right_children":[2,4,6,8,10,12,14,-1,-1,-1,-1,-1,-1,-1,-1],"split_conditions":[1.5059821E-1,-7.1572894E-1,1.1591909E0,-9.274781E-1,-2.884628E-1,5.0306875E-1,1.539044E0,-4.4096684E1,-3.643542E1,-2.2113459E1,-1.3656296E-1,1.6947117E1,3.994705E1,5.7464565E1,7.596597E1],"split_indices":[1,1,1,0,0,5,0,0,0,0,0,0,0,0,0],"split_type":[0,0,0,0,0,0,0,0,0,0,0,0,0,0,0],"sum_hessian":[1.949E3,1.217E3,7.32E2,6.7E2,5.47E2,3.2E2,4.12E2,4.19E2,2.51E2,4.87E2,6E1,6.1E1,2.59E2,2.36E2,1.76E2],"tree_param":{"num_deleted":"0","num_feature":"39","num_nodes":"15","size_leaf_vector":"1"}},{"base_weights":[4.4903096E-2,-2.821044E2,4.7716904E2,-3.7075067E2,-1.721148E2,3.356059E2,5.979076E2,-3.958433E1,-3.2449642E1,-1.9661068E1,1.9974194E0,2.1936842E1,3.8822243E1,5.2374866E1,6.841907E1],"categories":[],"categories_nodes":[],"categories_segments":[],"categories_sizes":[],"default_left":[0,0,0,0,0,0,0,0,0,0,0,0,0,0,0],"id":1,"left_children":[1,3,5,7,9,11,13,-1,-1,-1,-1,-1,-1,-1,-1],"loss_changes":[2.6264406E8,1.1889896E7,1.2191136E7,6.58472E5,2.587188E6,1.969816E6,2.137136E6,0E0,0E0,0E0,0E0,0E0,0E0,0E0,0E0],"parents":[2147483647,0,0,1,1,2,2,3,3,4,4,5,5,6,6],"right_children":[2,4,6,8,10,12,14,-1,-1,-1,-1,-1,-1,-1,-1],"split_conditions":[2.8796542E-1,-6.9627565E-1,1.1994933E0,-9.121438E-1,3.4092996E-1,7.908156E-1,1.5571164E0,-3.958433E1,-3.2449642E1,-1.9661068E1,1.9974194E0,2.1936842E1,3.8822243E1,5.2374866E1,6.841907E1],"split_indices":[1,1,1,1,20,1,1,0,0,0,0,0,0,0,0],"split_type":[0,0,0,0,0,0,0,0,0,0,0,0,0,0,0],"sum_hessian":[1.949E3,1.225E3,7.24E2,6.77E2,5.48E2,3.35E2,3.89E2,4.34E2,2.43E2,4.86E2,6.2E1,1.06E2,2.29E2,2.13E2,1.76E2],"tree_param":{"num_deleted":"0","num_feature":"39","num_nodes":"15","size_leaf_vector":"1"}},{"base_weights":[8.752075E-2,-2.5624695E2,4.2602924E2,-3.2807254E2,-1.5067525E2,2.6847903E2,5.194939E2,-3.5468987E1,-2.8118565E1,-1.728497E1,-1.1267191E0,1.222272E1,3.036617E1,4.4487835E1,6.021047E1],"categories":[],"categories_nodes":[],"categories_segments":[],"categories_sizes":[],"default_left":[0,0,0,0,0,0,0,0,0,0,0,0,0,0,0],"id":2,"left_children":[1,3,5,7,9,11,13,-1,-1,-1,-1,-1,-1,-1,-1],"loss_changes":[2.1301707E8,9.186368E6,1.0654232E7,8.03824E5,1.528243E6,1.377908E6,2.56144E6,0E0,0E0,0E0,0E0,0E0,0E0,0E0,0E0],"parents":[2147483647,0,0,1,1,2,2,3,3,4,4,5,5,6,6],"right_children":[2,4,6,8,10,12,14,-1,-1,-1,-1,-1,-1,-1,-1],"split_conditions":[1.5059821E-1,-6.4391565E-1,1.0818079E0,-8.95745E-1,-3.085684E-1,5.0688094E-1,1.4580528E0,-3.5468987E1,-2.8118565E1,-1.728497E1,-1.1267191E0,1.222272E1,3.036617E1,4.4487835E1,6.021047E1],"split_indices":[1,1,1,0,1,0,1,0,0,0,0,0,0,0,0],"split_type":[0,0,0,0,0,0,0,0,0,0,0,0,0,0,0],"sum_hessian":[1.949E3,1.217E3,7.32E2,7.23E2,4.94E2,2.74E2,4.58E2,4.57E2,2.66E2,4.26E2,6.8E1,5.4E1,2.2E2,2.44E2,2.14E2],"tree_param":{"num_deleted":"0","num_feature":"39","num_nodes":"15","size_leaf_vector":"1"}},{"base_weights":[1.1225827E-1,-2.3068956E2,3.8362726E2,-3.0353928E2,-1.4539627E2,2.3873517E2,4.6613254E2,-3.2685238E1,-2.7443546E1,-1.7828793E1,-6.143616E0,1.1936484E1,2.733353E1,4.07326E1,5.5325306E1],"categories":[],"categories_nodes":[],"categories_segments":[],"categories_sizes":[],"default_left":[0,0,0,0,0,0,0,0,0,0,0,0,0,0,0],"id":3,"left_children":[1,3,5,7,9,11,13,-1,-1,-1,-1,-1,-1,-1,-1],"loss_changes":[1.7269462E8,7.52402E6,8.651256E6,3.55392E5,1.543819E6,1.074274E6,2.162088E6,0E0,0E0,0E0,0E0,0E0,0E0,0E0,0E0],"parents":[2147483647,0,0,1,1,2,2,3,3,4,4,5,5,6,6],"right_children":[2,4,6,8,10,12,14,-1,-1,-1,-1,-1,-1,-1,-1],"split_conditions":[1.24315806E-1,-7.4607474E-1,1.0730671E0,-9.681945E-1,-4.0563184E-1,4.8561805E-1,1.5130206E0,-3.2685238E1,-2.7443546E1,-1.7828793E1,-6.143616E0,1.1936484E1,2.733353E1,4.07326E1,5.5325306E1],"split_indices":[11,2,0,0,0,6,0,0,0,0,0,0,0,0,0],"split_type":[0,0,0,0,0,0,0,0,0,0,0,0,0,0,0],"sum_hessian":[1.949E3,1.217E3,7.32E2,6.55E2,5.62E2,2.67E2,4.65E2,3.58E2,2.97E2,4.03E2,1.59E2,6.1E1,2.06E2,2.81E2,1.84E2],"tree_param":{"num_deleted":"0","num_feature":"39","num_nodes":"15","size_leaf_vector":"1"}},{"base_weights":[1.2730087E-1,-2.058932E2,3.485149E2,-2.6277814E2,-1.1223256E2,2.592771E2,4.5454416E2,-2.8631678E1,-2.2169706E1,-1.3278186E1,2.0999238E0,1.905529E1,3.217385E1,4.2579937E1,5.6960876E1],"categories":[],"categories_nodes":[],"categories_segments":[],"categories_sizes":[],"default_left":[0,0,0,0,0,0,0,0,0,0,0,0,0,0,0],"id":4,"left_children":[1,3,5,7,9,11,13,-1,-1,-1,-1,-1,-1,-1,-1],"loss_changes":[1.40033E8,6.502484E6,6.74196E6,6.73372E5,1.275875E6,1.638564E6,8.48936E5,0E0,0E0,0E0,0E0,0E0,0E0,0E0,0E0],"parents":[2147483647,0,0,1,1,2,2,3,3,4,4,5,5,6,6],"right_children":[2,4,6,8,10,12,14,-1,-1,-1,-1,-1,-1,-1,-1],"split_conditions":[2.758818E-1,-6.1082715E-1,1.2877535E0,-8.69566E-1,3.4092996E-1,9.128499E-1,1.7834663E0,-2.8631678E1,-2.2169706E1,-1.3278186E1,2.0999238E0,1.905529E1,3.217385E1,4.2579937E1,5.6960876E1],"split_indices":[2,2,2,33,20,2,2,0,0,0,0,0,0,0,0],"split_type":[0,0,0,0,0,0,0,0,0,0,0,0,0,0,0],"sum_hessian":[1.949E3,1.225E3,7.24E2,7.61E2,4.64E2,3.95E2,3.29E2,4.8E2,2.81E2,4.02E2,6.2E1,1.9E2,2.05E2,2.67E2,6.2E1],"tree_param":{"num_deleted":"0","num_feature":"39","num_nodes":"15","size_leaf_vector":"1"}},{"base_weights":[1.6009203E-1,-1.8701717E2,3.1118567E2,-2.3419725E2,-9.906951E1,2.2946587E2,4.102875E2,-2.5476648E1,-1.9088387E1,-1.15155735E1,1.1825565E0,1.3558202E1,2.696015E1,3.6837116E1,4.7695198E1],"categories":[],"categories_nodes":[],"categories_segments":[],"categories_sizes":[],"default_left":[0,0,0,0,0,0,0,0,0,0,0,0,0,0,0],"id":5,"left_children":[1,3,5,7,9,11,13,-1,-1,-1,-1,-1,-1,-1,-1],"loss_changes":[1.1358118E8,5.03074E6,5.84212E6,6.5698E5,7.6308E5,1.485756E6,7.46432E5,0E0,0E0,0E0,0E0,0E0,0E0,0E0,0E0],"parents":[2147483647,0,0,1,1,2,2,3,3,4,4,5,5,6,6],"right_children":[2,4,6,8,10,12,14,-1,-1,-1,-1,-1,-1,-1,-1],"split_conditions":[1.305988E-1,-5.9291416E-1,1.2829791E0,-8.520863E-1,3.4092996E-1,8.043464E-1,1.6588281E0,-2.5476648E1,-1.9088387E1,-1.15155735E1,1.1825565E0,1.3558202E1,2.696015E1,3.6837116E1,4.7695198E1],"split_indices":[5,0,1,0,20,0,0,0,0,0,0,0,0,0,0],"split_type":[0,0,0,0,0,0,0,0,0,0,0,0,0,0,0],"sum_hessian":[1.949E3,1.217E3,7.32E2,7.91E2,4.26E2,4.03E2,3.29E2,5.33E2,2.58E2,3.72E2,5.4E1,1.22E2,2.81E2,2.06E2,1.23E2],"tree_param":{"num_deleted":"0","num_feature":"39","num_nodes":"15","size_leaf_vector":"1"}},{"base_weights":[1.8003984E-1,-1.6548215E2,2.8529434E2,-2.0911227E2,-8.042492E1,2.160426E2,3.7348672E2,-2.2610682E1,-1.6241156E1,-1.0159245E1,1.5186175E0,1.591407E1,2.6581934E1,3.514529E1,4.8826904E1],"categories":[],"categories_nodes":[],"categories_segments":[],"categories_sizes":[],"default_left":[0,0,0,0,0,0,0,0,0,0,0,0,0,0,0],"id":6,"left_children":[1,3,5,7,9,11,13,-1,-1,-1,-1,-1,-1,-1,-1],"loss_changes":[9.21509E7,4.562628E6,4.298372E6,6.10112E5,8.5156E5,1.101984E6,6.22532E5,0E0,0E0,0E0,0E0,0E0,0E0,0E0,0E0],"parents":[2147483647,0,0,1,1,2,2,3,3,4,4,5,5,6,6],"right_children":[2,4,6,8,10,12,14,-1,-1,-1,-1,-1,-1,-1,-1],"split_conditions":[3.3013386E-1,-5.6668967E-1,1.3062627E0,-8.2768834E-1,-2.9296055E-1,9.4122046E-1,1.8657266E0,-2.2610682E1,-1.6241156E1,-1.0159245E1,1.5186175E0,1.591407E1,2.6581934E1,3.514529E1,4.8826904E1],"split_indices":[1,1,1,33,11,1,1,0,0,0,0,0,0,0,0],"split_type":[0,0,0,0,0,0,0,0,0,0,0,0,0,0,0],"sum_hessian":[1.949E3,1.233E3,7.16E2,8.14E2,4.19E2,4.03E2,3.13E2,5.94E2,2.2E2,3.43E2,7.6E1,1.9E2,2.13E2,2.66E2,4.7E1],"tree_param":{"num_deleted":"0","num_feature":"39","num_nodes":"15","size_leaf_vector":"1"}},{"base_weights":[2.0253418E-1,-1.4548251E2,2.6348343E2,-1.8662267E2,-6.2854977E1,2.131965E2,3.544006E2,-2.1373762E1,-1.5899762E1,-8.778369E0,2.6704524E0,1.5877054E1,2.4990505E1,3.3186184E1,4.404594E1],"categories":[],"categories_nodes":[],"categories_segments":[],"categories_sizes":[],"default_left":[0,0,0,0,0,0,0,0,0,0,0,0,0,0,0],"id":7,"left_children":[1,3,5,7,9,11,13,-1,-1,-1,-1,-1,-1,-1,-1],"loss_changes":[7.48327E7,4.257804E6,3.101948E6,5.93722E5,9.3780475E5,8.59378E5,3.30986E5,0E0,0E0,0E0,0E0,0E0,0E0,0E0,0E0],"parents":[2147483647,0,0,1,1,2,2,3,3,4,4,5,5,6,6],"right_children":[2,4,6,8,10,12,14,-1,-1,-1,-1,-1,-1,-1,-1],"split_conditions":[3.1813776E-1,-5.450143E-1,1.388243E0,-9.3471074E-1,-7.886307E-2,9.857584E-1,1.8657266E0,-2.1373762E1,-1.5899762E1,-8.778369E0,2.6704524E0,1.5877054E1,2.4990505E1,3.3186184E1,4.404594E1],"split_indices":[17,1,1,1,1,1,1,0,0,0,0,0,0,0,0],"split_type":[0,0,0,0,0,0,0,0,0,0,0,0,0,0,0],"sum_hessian":[1.949E3,1.255E3,6.94E2,8.37E2,4.18E2,4.49E2,2.45E2,4.19E2,4.18E2,3.27E2,9.1E1,1.83E2,2.66E2,1.98E2,4.7E1],"tree_param":{"num_deleted":"0","num_feature":"39","num_nodes":"15","size_leaf_vector":"1"}},{"base_weights":[2.2061166E-1,-1.298523E2,2.3953929E2,-1.6350296E2,-4.423494E1,1.9241895E2,3.1571112E2,-1.8224781E1,-1.1976121E1,-7.1355524E0,2.5481353E0,1.4551564E1,2.2198563E1,2.9592855E1,3.9733112E1],"categories":[],"categories_nodes":[],"categories_segments":[],"categories_sizes":[],"default_left":[0,0,0,0,0,0,0,0,0,0,0,0,0,0,0],"id":8,"left_children":[1,3,5,7,9,11,13,-1,-1,-1,-1,-1,-1,-1,-1],"loss_changes":[6.073241E7,3.634456E6,2.405064E6,7.21854E5,6.787055E5,5.59852E5,3.0384E5,0E0,0E0,0E0,0E0,0E0,0E0,0E0,0E0],"parents":[2147483647,0,0,1,1,2,2,3,3,4,4,5,5,6,6],"right_children":[2,4,6,8,10,12,14,-1,-1,-1,-1,-1,-1,-1,-1],"split_conditions":[4.512118E-1,-5.121453E-1,1.3602154E0,-8.0013543E-1,3.23758E-1,9.6791285E-1,1.8657266E0,-1.8224781E1,-1.1976121E1,-7.1355524E0,2.5481353E0,1.4551564E1,2.2198563E1,2.9592855E1,3.9733112E1],"split_indices":[1,1,2,1,20,1,1,0,0,0,0,0,0,0,0],"split_type":[0,0,0,0,0,0,0,0,0,0,0,0,0,0,0],"sum_hessian":[1.949E3,1.263E3,6.86E2,9.06E2,3.57E2,4.26E2,2.6E2,6.32E2,2.74E2,2.57E2,1E2,1.67E2,2.59E2,2.13E2,4.7E1],"tree_param":{"num_deleted":"0","num_feature":"39","num_nodes":"15","size_leaf_vector":"1"}},{"base_weights":[2.3510636E-1,-1.2399246E2,2.0353152E2,-1.6276001E2,-7.802933E1,1.3413857E2,2.581498E2,-1.862596E1,-1.483907E1,-9.638358E0,-2.9054515E0,6.98144E0,1.6164198E1,2.2853155E1,3.1488997E1],"categories":[],"categories_nodes":[],"categories_segments":[],"categories_sizes":[],"default_left":[0,0,0,0,0,0,0,0,0,0,0,0,0,0,0],"id":9,"left_children":[1,3,5,7,9,11,13,-1,-1,-1,-1,-1,-1,-1,-1],"loss_changes":[4.9272524E7,2.145154E6,2.770064E6,1.93874E5,4.969855E5,5.68991E5,6.22104E5,0E0,0E0,0E0,0E0,0E0,0E0,0E0,0E0],"parents":[2147483647,0,0,1,1,2,2,3,3,4,4,5,5,6,6],"right_children":[2,4,6,8,10,12,14,-1,-1,-1,-1,-1,-1,-1,-1],"split_conditions":[1.2319441E-1,-7.3825586E-1,1.1541803E0,-1.0000281E0,-4.0563184E-1,7.397549E-1,1.6359864E0,-1.862596E1,-1.483907E1,-9.638358E0,-2.9054515E0,6.98144E0,1.6164198E1,2.2853155E1,3.1488997E1],"split_indices":[0,0,0,11,0,0,0,0,0,0,0,0,0,0,0],"split_type":[0,0,0,0,0,0,0,0,0,0,0,0,0,0,0],"sum_hessian":[1.949E3,1.21E3,7.39E2,6.55E2,5.55E2,3.27E2,4.12E2,2.44E2,4.11E2,4.03E2,1.52E2,9.9E1,2.28E2,2.74E2,1.38E2],"tree_param":{"num_deleted":"0","num_feature":"39","num_nodes":"15","size_leaf_vector":"1"}},{"base_weights":[2.2773983E-1,-1.0534437E2,1.944678E2,-1.3574649E2,-4.2144485E1,1.5739381E2,2.6028986E2,-1.6042562E1,-1.1686971E1,-6.214759E0,2.0886667E0,1.1892477E1,1.8216223E1,2.4274801E1,3.2759274E1],"categories":[],"categories_nodes":[],"categories_segments":[],"categories_sizes":[],"default_left":[0,0,0,0,0,0,0,0,0,0,0,0,0,0,0],"id":10,"left_children":[1,3,5,7,9,11,13,-1,-1,-1,-1,-1,-1,-1,-1],"loss_changes":[4.0007836E7,2.422942E6,1.63551E6,3.78633E5,5.207552E5,3.99482E5,2.1091E5,0E0,0E0,0E0,0E0,0E0,0E0,0E0,0E0],"parents":[2147483647,0,0,1,1,2,2,3,3,4,4,5,5,6,6],"right_children":[2,4,6,8,10,12,14,-1,-1,-1,-1,-1,-1,-1,-1],"split_conditions":[4.512118E-1,-5.375438E-1,1.388243E0,-9.611766E-1,-7.886307E-2,9.857584E-1,1.8657266E0,-1.6042562E1,-1.1686971E1,-6.214759E0,2.0886667E0,1.1892477E1,1.8216223E1,2.4274801E1,3.2759274E1],"split_indices":[1,1,1,1,1,1,1,0,0,0,0,0,0,0,0],"split_type":[0,0,0,0,0,0,0,0,0,0,0,0,0,0,0],"sum_hessian":[1.949E3,1.263E3,6.86E2,8.52E2,4.11E2,4.41E2,2.45E2,3.66E2,4.86E2,3.12E2,9.9E1,1.75E2,2.66E2,1.98E2,4.7E1],"tree_param":{"num_deleted":"0","num_feature":"39","num_nodes":"15","size_leaf_vector":"1"}},{"base_weights":[2.3332071E-1,-1.005932E2,1.6523424E2,-1.3295215E2,-6.3236473E1,1.0718189E2,2.0896706E2,-1.5535277E1,-1.2275065E1,-8.03435E0,-2.7470095E0,4.125152E0,1.2480893E1,1.825801E1,2.5307257E1],"categories":[],"categories_nodes":[],"categories_segments":[],"categories_sizes":[],"default_left":[0,0,0,0,0,0,0,0,0,0,0,0,0,0,0],"id":11,"left_children":[1,3,5,7,9,11,13,-1,-1,-1,-1,-1,-1,-1,-1],"loss_changes":[3.2457734E7,1.455478E6,1.85631E6,1.29012E5,3.4287975E5,3.66742E5,4.43758E5,0E0,0E0,0E0,0E0,0E0,0E0,0E0,0E0],"parents":[2147483647,0,0,1,1,2,2,3,3,4,4,5,5,6,6],"right_children":[2,4,6,8,10,12,14,-1,-1,-1,-1,-1,-1,-1,-1],"split_conditions":[1.0711161E-1,-7.690037E-1,1.148007E0,-1.0161874E0,-4.5241898E-1,6.3909084E-1,1.6015671E0,-1.5535277E1,-1.2275065E1,-8.03435E0,-2.7470095E0,4.125152E0,1.2480893E1,1.825801E1,2.5307257E1],"split_indices":[11,2,1,1,1,1,1,0,0,0,0,0,0,0,0],"split_type":[0,0,0,0,0,0,0,0,0,0,0,0,0,0,0],"sum_hessian":[1.949E3,1.21E3,7.39E2,6.47E2,5.63E2,3.19E2,4.2E2,1.98E2,4.49E2,3.8E2,1.83E2,6.8E1,2.51E2,2.66E2,1.54E2],"tree_param":{"num_deleted":"0","num_feature":"39","num_nodes":"15","size_leaf_vector":"1"}},{"base_weights":[2.210649E-1,-9.139283E1,1.4756236E2,-1.2009784E2,-5.8657722E1,8.1615166E1,1.8070348E2,-1.366568E1,-1.0906197E1,-7.18156E0,-2.5276115E0,3.317773E0,9.969717E0,1.5050661E1,2.1482407E1],"categories":[],"categories_nodes":[],"categories_segments":[],"categories_sizes":[],"default_left":[0,0,0,0,0,0,0,0,0,0,0,0,0,0,0],"id":12,"left_children":[1,3,5,7,9,11,13,-1,-1,-1,-1,-1,-1,-1,-1],"loss_changes":[2.633558E7,1.123369E6,1.620053E6,1.02052E5,2.4591112E5,2.1740525E5,4.79744E5,0E0,0E0,0E0,0E0,0E0,0E0,0E0,0E0],"parents":[2147483647,0,0,1,1,2,2,3,3,4,4,5,5,6,6],"right_children":[2,4,6,8,10,12,14,-1,-1,-1,-1,-1,-1,-1,-1],"split_conditions":[-4.4974726E-2,-7.9218125E-1,1.0093297E0,-9.9770695E-1,-4.4422933E-1,5.0688094E-1,1.4183362E0,-1.366568E1,-1.0906197E1,-7.18156E0,-2.5276115E0,3.317773E0,9.969717E0,1.5050661E1,2.1482407E1],"split_indices":[17,13,0,33,0,0,0,0,0,0,0,0,0,0,0],"split_type":[0,0,0,0,0,0,0,0,0,0,0,0,0,0,0],"sum_hessian":[1.949E3,1.202E3,7.47E2,6.39E2,5.63E2,2.51E2,4.96E2,2.51E2,3.88E2,4.03E2,1.6E2,6.9E1,1.82E2,2.66E2,2.3E2],"tree_param":{"num_deleted":"0","num_feature":"39","num_nodes":"15","size_leaf_vector":"1"}},{"base_weights":[2.0692602E-1,-8.228204E1,1.3287273E2,-1.0657079E2,-5.0818054E1,7.350638E1,1.6270663E2,-1.2428608E1,-9.725881E0,-6.2260747E0,-2.0322008E0,2.9907377E0,8.978192E0,1.4721311E1,2.2199596E1],"categories":[],"categories_nodes":[],"categories_segments":[],"categories_sizes":[],"default_left":[0,0,0,0,0,0,0,0,0,0,0,0,0,0,0],"id":13,"left_children":[1,3,5,7,9,11,13,-1,-1,-1,-1,-1,-1,-1,-1],"loss_changes":[2.1350688E7,9.13943E5,1.312844E6,9.9758E4,1.8228588E5,1.761335E5,4.23865E5,0E0,0E0,0E0,0E0,0E0,0E0,0E0,0E0],"parents":[2147483647,0,0,1,1,2,2,3,3,4,4,5,5,6,6],"right_children":[2,4,6,8,10,12,14,-1,-1,-1,-1,-1,-1,-1,-1],"split_conditions":[-2.5287917E-1,-6.8300563E-1,1.0093297E0,-1.005679E0,-4.1595066E-1,5.0688094E-1,1.6949155E0,-1.2428608E1,-9.725881E0,-6.2260747E0,-2.0322008E0,2.9907377E0,8.978192E0,1.4721311E1,2.2199596E1],"split_indices":[19,0,0,0,2,0,0,0,0,0,0,0,0,0,0],"split_type":[0,0,0,0,0,0,0,0,0,0,0,0,0,0,0],"sum_hessian":[1.949E3,1.202E3,7.47E2,6.77E2,5.25E2,2.51E2,4.96E2,2.29E2,4.48E2,3.81E2,1.44E2,6.9E1,1.82E2,3.96E2,1E2],"tree_param":{"num_deleted":"0","num_feature":"39","num_nodes":"15","size_leaf_vector":"1"}},{"base_weights":[1.9571897E-1,-7.408513E1,1.1966051E2,-9.772476E1,-4.7748924E1,8.453649E1,1.6224637E2,-1.1605362E1,-9.085315E0,-6.1684055E0,-2.54006E0,3.8023083E0,1.0072965E1,1.4955787E1,2.2324478E1],"categories":[],"categories_nodes":[],"categories_segments":[],"categories_sizes":[],"default_left":[0,0,0,0,0,0,0,0,0,0,0,0,0,0,0],"id":14,"left_children":[1,3,5,7,9,11,13,-1,-1,-1,-1,-1,-1,-1,-1],"loss_changes":[1.731306E7,7.442955E5,1.105131E6,6.91815E4,1.76258E5,3.0648775E5,2.27444E5,0E0,0E0,0E0,0E0,0E0,0E0,0E0,0E0],"parents":[2147483647,0,0,1,1,2,2,3,3,4,4,5,5,6,6],"right_children":[2,4,6,8,10,12,14,-1,-1,-1,-1,-1,-1,-1,-1],"split_conditions":[3.3076283E-2,-8.089319E-1,1.2685564E0,-1.0294542E0,-4.804017E-1,7.397549E-1,1.8209584E0,-1.1605362E1,-9.085315E0,-6.1684055E0,-2.54006E0,3.8023083E0,1.0072965E1,1.4955787E1,2.2324478E1],"split_indices":[0,15,0,0,0,0,0,0,0,0,0,0,0,0,0],"split_type":[0,0,0,0,0,0,0,0,0,0,0,0,0,0,0],"sum_hessian":[1.949E3,1.202E3,7.47E2,6.32E2,5.7E2,4.11E2,3.36E2,1.68E2,4.64E2,3.5E2,2.2E2,1.07E2,3.04E2,2.81E2,5.5E1],"tree_param":{"num_deleted":"0","num_feature":"39","num_nodes":"15","size_leaf_vector":"1"}},{"base_weights":[1.8729253E-1,-6.238656E1,1.1531562E2,-8.075648E1,-2.308238E1,9.0727905E1,1.5509967E2,-9.2612915E0,-6.5576167E0,-3.4313753E0,1.9471983E0,6.0787573E0,1.0348468E1,1.4384506E1,2.1198183E1],"categories":[],"categories_nodes":[],"categories_segments":[],"categories_sizes":[],"default_left":[0,0,0,0,0,0,0,0,0,0,0,0,0,0,0],"id":15,"left_children":[1,3,5,7,9,11,13,-1,-1,-1,-1,-1,-1,-1,-1],"loss_changes":[1.405504E7,9.10762E5,6.5795E5,1.48893E5,1.9375745E5,1.567985E5,1.36596E5,0E0,0E0,0E0,0E0,0E0,0E0,0E0,0E0],"parents":[2147483647,0,0,1,1,2,2,3,3,4,4,5,5,6,6],"right_children":[2,4,6,8,10,12,14,-1,-1,-1,-1,-1,-1,-1,-1],"split_conditions":[4.494394E-1,-5.329228E-1,1.3583279E0,-8.725845E-1,-1.1373651E-2,8.820804E-1,1.9097923E0,-9.2612915E0,-6.5576167E0,-3.4313753E0,1.9471983E0,6.0787573E0,1.0348468E1,1.4384506E1,2.1198183E1],"split_indices":[0,0,0,0,0,1,1,0,0,0,0,0,0,0,0],"split_type":[0,0,0,0,0,0,0,0,0,0,0,0,0,0,0],"sum_hessian":[1.949E3,1.263E3,6.86E2,8.6E2,4.03E2,4.26E2,2.6E2,4.8E2,3.8E2,3.19E2,8.4E1,1.29E2,2.97E2,2.2E2,4E1],"tree_param":{"num_deleted":"0","num_feature":"39","num_nodes":"15","size_leaf_vector":"1"}},{"base_weights":[1.8635704E-1,-5.6176384E1,1.0388697E2,-7.136071E1,-1.7549679E1,8.369097E1,1.4339209E2,-8.77671E0,-6.1227455E0,-3.226323E0,8.5038084E-1,5.489948E0,9.484708E0,1.3350879E1,1.9864614E1],"categories":[],"categories_nodes":[],"categories_segments":[],"categories_sizes":[],"default_left":[0,0,0,0,0,0,0,0,0,0,0,0,0,0,0],"id":16,"left_children":[1,3,5,7,9,11,13,-1,-1,-1,-1,-1,-1,-1,-1],"loss_changes":[1.1403294E7,7.4010975E5,5.36119E5,1.45415E5,1.3750984E5,1.415815E5,9.9626E4,0E0,0E0,0E0,0E0,0E0,0E0,0E0,0E0],"parents":[2147483647,0,0,1,1,2,2,3,3,4,4,5,5,6,6],"right_children":[2,4,6,8,10,12,14,-1,-1,-1,-1,-1,-1,-1,-1],"split_conditions":[4.1701224E-1,-5.121453E-1,1.4183362E0,-9.7763664E-1,-3.4224588E-1,8.820804E-1,1.967399E0,-8.77671E0,-6.1227455E0,-3.226323E0,8.5038084E-1,5.489948E0,9.484708E0,1.3350879E1,1.9864614E1],"split_indices":[6,1,0,0,1,1,0,0,0,0,0,0,0,0,0],"split_type":[0,0,0,0,0,0,0,0,0,0,0,0,0,0,0],"sum_hessian":[1.949E3,1.263E3,6.86E2,9.06E2,3.57E2,4.56E2,2.3E2,3.43E2,5.63E2,2.28E2,1.29E2,1.29E2,3.27E2,1.98E2,3.2E1],"tree_param":{"num_deleted":"0","num_feature":"39","num_nodes":"15","size_leaf_vector":"1"}},{"base_weights":[1.835675E-1,-5.4148064E1,8.756427E1,-6.862682E1,-2.9767767E1,6.044126E1,1.1790595E2,-8.827137E0,-6.3478923E0,-3.7863414E0,-1.119019E0,3.6953855E0,7.7334495E0,1.0793509E1,1.6193209E1],"categories":[],"categories_nodes":[],"categories_segments":[],"categories_sizes":[],"default_left":[0,0,0,0,0,0,0,0,0,0,0,0,0,0,0],"id":17,"left_children":[1,3,5,7,9,11,13,-1,-1,-1,-1,-1,-1,-1,-1],"loss_changes":[9.262437E6,4.22612E5,6.08446E5,7.064725E4,6.725516E4,1.5466312E5,1.370425E5,0E0,0E0,0E0,0E0,0E0,0E0,0E0,0E0],"parents":[2147483647,0,0,1,1,2,2,3,3,4,4,5,5,6,6],"right_children":[2,4,6,8,10,12,14,-1,-1,-1,-1,-1,-1,-1,-1],"split_conditions":[3.8449194E-2,-6.2336296E-1,1.2500856E0,-1.0319949E0,-3.9962465E-1,8.5014135E-1,1.7624813E0,-8.827137E0,-6.3478923E0,-3.7863414E0,-1.119019E0,3.6953855E0,7.7334495E0,1.0793509E1,1.6193209E1],"split_indices":[1,1,1,1,1,1,1,0,0,0,0,0,0,0,0],"split_type":[0,0,0,0,0,0,0,0,0,0,0,0,0,0,0],"sum_hessian":[1.949E3,1.202E3,7.47E2,7.53E2,4.49E2,3.96E2,3.51E2,1.53E2,6E2,3.12E2,1.37E2,1.67E2,2.29E2,2.89E2,6.2E1],"tree_param":{"num_deleted":"0","num_feature":"39","num_nodes":"15","size_leaf_vector":"1"}},{"base_weights":[1.7462295E-1,-4.5218037E1,8.5210396E1,-5.7219322E1,-1.161559E1,6.9498436E1,1.18795746E2,-6.546642E0,-4.170728E0,-2.1287744E0,1.3885711E0,5.1703296E0,8.005859E0,1.1005254E1,1.6368095E1],"categories":[],"categories_nodes":[],"categories_segments":[],"categories_sizes":[],"default_left":[0,0,0,0,0,0,0,0,0,0,0,0,0,0,0],"id":18,"left_children":[1,3,5,7,9,11,13,-1,-1,-1,-1,-1,-1,-1,-1],"loss_changes":[7.5308525E6,5.1229775E5,3.500465E5,1.1713925E5,8.317084E4,8.324325E4,6.636125E4,0E0,0E0,0E0,0E0,0E0,0E0,0E0,0E0],"parents":[2147483647,0,0,1,1,2,2,3,3,4,4,5,5,6,6],"right_children":[2,4,6,8,10,12,14,-1,-1,-1,-1,-1,-1,-1,-1],"split_conditions":[5.831772E-2,-4.9835467E-1,1.4580528E0,-8.1596464E-1,-1.617936E-2,9.9445754E-1,1.9566249E0,-6.546642E0,-4.170728E0,-2.1287744E0,1.3885711E0,5.1703296E0,8.005859E0,1.1005254E1,1.6368095E1],"split_indices":[9,1,1,1,1,33,1,0,0,0,0,0,0,0,0],"split_type":[0,0,0,0,0,0,0,0,0,0,0,0,0,0,0],"sum_hessian":[1.949E3,1.271E3,6.78E2,9.36E2,3.35E2,4.64E2,2.14E2,6.09E2,3.27E2,2.43E2,9.2E1,1.75E2,2.89E2,1.82E2,3.2E1],"tree_param":{"num_deleted":"0","num_feature":"39","num_nodes":"15","size_leaf_vector":"1"}},{"base_weights":[1.7208123E-1,-4.0712276E1,7.676226E1,-5.3582783E1,-1.5117052E1,5.9847958E1,1.0231994E2,-6.528805E0,-4.578131E0,-2.592533E0,5.862757E-1,4.461443E0,6.8615837E0,9.307833E0,1.3580896E1],"categories":[],"categories_nodes":[],"categories_segments":[],"categories_sizes":[],"default_left":[0,0,0,0,0,0,0,0,0,0,0,0,0,0,0],"id":19,"left_children":[1,3,5,7,9,11,13,-1,-1,-1,-1,-1,-1,-1,-1],"loss_changes":[6.1092385E6,4.182165E5,2.874015E5,7.42665E4,9.697666E4,5.183425E4,7.061275E4,0E0,0E0,0E0,0E0,0E0,0E0,0E0,0E0],"parents":[2147483647,0,0,1,1,2,2,3,3,4,4,5,5,6,6],"right_children":[2,4,6,8,10,12,14,-1,-1,-1,-1,-1,-1,-1,-1],"split_conditions":[5.0688094E-1,-5.383442E-1,1.3456554E0,-9.799309E-1,-3.5273272E-1,9.4183975E-1,1.8209584E0,-6.528805E0,-4.578131E0,-2.592533E0,5.862757E-1,4.461443E0,6.8615837E0,9.307833E0,1.3580896E1],"split_indices":[0,0,0,0,0,0,0,0,0,0,0,0,0,0,0],"split_type":[0,0,0,0,0,0,0,0,0,0,0,0,0,0,0],"sum_hessian":[1.949E3,1.271E3,6.78E2,8.45E2,4.26E2,4.1E2,2.68E2,3.35E2,5.1E2,2.81E2,1.45E2,1.52E2,2.58E2,2.13E2,5.5E1],"tree_param":{"num_deleted":"0","num_feature":"39","num_nodes":"15","size_leaf_vector":"1"}},{"base_weights":[1.6568801E-1,-3.9577538E1,6.408405E1,-5.2550858E1,-2.438637E1,3.9576946E1,8.231465E1,-6.5025873E0,-4.8049135E0,-2.8978493E0,-6.524586E-1,1.7414703E0,4.826977E0,7.166866E0,1.0564455E1],"categories":[],"categories_nodes":[],"categories_segments":[],"categories_sizes":[],"default_left":[0,0,0,0,0,0,0,0,0,0,0,0,0,0,0],"id":20,"left_children":[1,3,5,7,9,11,13,-1,-1,-1,-1,-1,-1,-1,-1],"loss_changes":[4.956164E6,2.3580562E5,3.3093325E5,3.326675E4,4.541603E4,6.1000812E4,9.873075E4,0E0,0E0,0E0,0E0,0E0,0E0,0E0,0E0],"parents":[2147483647,0,0,1,1,2,2,3,3,4,4,5,5,6,6],"right_children":[2,4,6,8,10,12,14,-1,-1,-1,-1,-1,-1,-1,-1],"split_conditions":[-4.4974726E-2,-7.809692E-1,1.1521791E0,-1.0265287E0,-3.7553045E-1,1.126478E-1,1.6510105E0,-6.5025873E0,-4.8049135E0,-2.8978493E0,-6.524586E-1,1.7414703E0,4.826977E0,7.166866E0,1.0564455E1],"split_indices":[17,6,34,11,11,9,34,0,0,0,0,0,0,0,0],"split_type":[0,0,0,0,0,0,0,0,0,0,0,0,0,0,0],"sum_hessian":[1.949E3,1.202E3,7.47E2,6.47E2,5.55E2,3.2E2,4.27E2,1.68E2,4.79E2,4.41E2,1.14E2,9.1E1,2.29E2,2.96E2,1.31E2],"tree_param":{"num_deleted":"0","num_feature":"39","num_nodes":"15","size_leaf_vector":"1"}},{"base_weights":[1.5395029E-1,-3.3019608E1,6.2299183E1,-4.0808735E1,-4.632092E0,5.0551964E1,8.74162E1,-4.9719787E0,-3.1394074E0,-1.4372376E0,9.249997E-1,3.7473183E0,5.8315115E0,8.034702E0,1.2396899E1],"categories":[],"categories_nodes":[],"categories_segments":[],"categories_sizes":[],"default_left":[0,0,0,0,0,0,0,0,0,0,0,0,0,0,0],"id":21,"left_children":[1,3,5,7,9,11,13,-1,-1,-1,-1,-1,-1,-1,-1],"loss_changes":[4.0221352E6,2.81068E5,1.9592325E5,8.2165875E4,3.7317203E4,4.5027375E4,4.5594875E4,0E0,0E0,0E0,0E0,0E0,0E0,0E0,0E0],"parents":[2147483647,0,0,1,1,2,2,3,3,4,4,5,5,6,6],"right_children":[2,4,6,8,10,12,14,-1,-1,-1,-1,-1,-1,-1,-1],"split_conditions":[5.831772E-2,-4.7267687E-1,1.4563354E0,-8.539474E-1,1.960711E-1,9.9445754E-1,1.9604045E0,-4.9719787E0,-3.1394074E0,-1.4372376E0,9.249997E-1,3.7473183E0,5.8315115E0,8.034702E0,1.2396899E1],"split_indices":[9,2,2,33,20,33,2,0,0,0,0,0,0,0,0],"split_type":[0,0,0,0,0,0,0,0,0,0,0,0,0,0,0],"sum_hessian":[1.949E3,1.271E3,6.78E2,9.97E2,2.74E2,4.64E2,2.14E2,5.1E2,4.87E2,1.61E2,1.13E2,1.75E2,2.89E2,1.82E2,3.2E1],"tree_param":{"num_deleted":"0","num_feature":"39","num_nodes":"15","size_leaf_vector":"1"}},{"base_weights":[1.4952543E-1,-2.9730568E1,5.6124973E1,-4.0456936E1,-1.2415137E1,4.251235E1,7.4020775E1,-5.6500525E0,-3.6977813E0,-1.9620237E0,4.5969462E-1,2.8178499E0,4.7800326E0,6.885139E0,1.1250621E1],"categories":[],"categories_nodes":[],"categories_segments":[],"categories_sizes":[],"default_left":[0,0,0,0,0,0,0,0,0,0,0,0,0,0,0],"id":22,"left_children":[1,3,5,7,9,11,13,-1,-1,-1,-1,-1,-1,-1,-1],"loss_changes":[3.2631442E6,2.357485E5,1.6226375E5,4.1727625E4,5.9906203E4,2.8062375E4,5.0346E4,0E0,0E0,0E0,0E0,0E0,0E0,0E0,0E0],"parents":[2147483647,0,0,1,1,2,2,3,3,4,4,5,5,6,6],"right_children":[2,4,6,8,10,12,14,-1,-1,-1,-1,-1,-1,-1,-1],"split_conditions":[5.0688094E-1,-6.019405E-1,1.328216E0,-1.0376229E0,-3.52235E-1,8.550182E-1,1.967399E0,-5.6500525E0,-3.6977813E0,-1.9620237E0,4.5969462E-1,2.8178499E0,4.7800326E0,6.885139E0,1.1250621E1],"split_indices":[0,1,1,1,1,0,0,0,0,0,0,0,0,0,0],"split_type":[0,0,0,0,0,0,0,0,0,0,0,0,0,0,0],"sum_hessian":[1.949E3,1.271E3,6.78E2,7.84E2,4.87E2,3.87E2,2.91E2,1.37E2,6.47E2,3.42E2,1.45E2,1.06E2,2.81E2,2.59E2,3.2E1],"tree_param":{"num_deleted":"0","num_feature":"39","num_nodes":"15","size_leaf_vector":"1"}},{"base_weights":[1.4220455E-1,-2.8933975E1,4.6904907E1,-3.8818295E1,-1.7666424E1,3.1386545E1,6.3543068E1,-5.445936E0,-3.6093042E0,-2.2952993E0,-7.85461E-1,1.3578011E0,3.8095536E0,5.7040424E0,8.920819E0],"categories":[],"categories_nodes":[],"categories_segments":[],"categories_sizes":[],"default_left":[0,0,0,0,0,0,0,0,0,0,0,0,0,0,0],"id":23,"left_children":[1,3,5,7,9,11,13,-1,-1,-1,-1,-1,-1,-1,-1],"loss_changes":[2.6527345E6,1.3329488E5,1.91137E5,2.5314875E4,2.907486E4,4.5959406E4,5.499225E4,0E0,0E0,0E0,0E0,0E0,0E0,0E0,0E0],"parents":[2147483647,0,0,1,1,2,2,3,3,4,4,5,5,6,6],"right_children":[2,4,6,8,10,12,14,-1,-1,-1,-1,-1,-1,-1,-1],"split_conditions":[-3.0586243E-1,-7.886686E-1,1.2456577E0,-1.0542818E0,-4.667057E-1,7.29377E-1,1.7553747E0,-5.445936E0,-3.6093042E0,-2.2952993E0,-7.85461E-1,1.3578011E0,3.8095536E0,5.7040424E0,8.920819E0],"split_indices":[21,1,0,1,1,1,0,0,0,0,0,0,0,0,0],"split_type":[0,0,0,0,0,0,0,0,0,0,0,0,0,0,0],"sum_hessian":[1.949E3,1.202E3,7.47E2,6.39E2,5.63E2,3.88E2,3.59E2,9.2E1,5.47E2,3.65E2,1.98E2,1.07E2,2.81E2,2.89E2,7E1],"tree_param":{"num_deleted":"0","num_feature":"39","num_nodes":"15","size_leaf_vector":"1"}},{"base_weights":[1.3190141E-1,-2.6254932E1,4.1931267E1,-3.529254E1,-1.656323E1,2.4773394E1,5.4428032E1,-4.7011776E0,-3.2315204E0,-2.092942E0,-7.653625E-1,1.2026886E0,3.1768904E0,4.6345E0,7.1365547E0],"categories":[],"categories_nodes":[],"categories_segments":[],"categories_sizes":[],"default_left":[0,0,0,0,0,0,0,0,0,0,0,0,0,0,0],"id":24,"left_children":[1,3,5,7,9,11,13,-1,-1,-1,-1,-1,-1,-1,-1],"loss_changes":[2.151859E6,1.04172875E5,1.6053712E5,2.0044125E4,2.23635E4,2.8151781E4,5.638375E4,0E0,0E0,0E0,0E0,0E0,0E0,0E0,0E0],"parents":[2147483647,0,0,1,1,2,2,3,3,4,4,5,5,6,6],"right_children":[2,4,6,8,10,12,14,-1,-1,-1,-1,-1,-1,-1,-1],"split_conditions":[1.9447874E-2,-8.0921733E-1,1.1208693E0,-1.044971E0,-4.667057E-1,7.29377E-1,1.6272045E0,-4.7011776E0,-3.2315204E0,-2.092942E0,-7.653625E-1,1.2026886E0,3.1768904E0,4.6345E0,7.1365547E0],"split_indices":[1,1,1,1,1,1,1,0,0,0,0,0,0,0,0],"split_type":[0,0,0,0,0,0,0,0,0,0,0,0,0,0,0],"sum_hessian":[1.949E3,1.195E3,7.54E2,6.17E2,5.78E2,3.19E2,4.35E2,1.22E2,4.95E2,3.87E2,1.91E2,1.14E2,2.05E2,2.97E2,1.38E2],"tree_param":{"num_deleted":"0","num_feature":"39","num_nodes":"15","size_leaf_vector":"1"}},{"base_weights":[1.2145639E-1,-2.156544E1,4.1397377E1,-2.9838612E1,-9.032287E0,3.4665485E1,6.237639E1,-3.697193E0,-2.5451877E0,-1.4496523E0,3.8123444E-1,2.5348713E0,3.9786282E0,5.5893273E0,8.602573E0],"categories":[],"categories_nodes":[],"categories_segments":[],"categories_sizes":[],"default_left":[0,0,0,0,0,0,0,0,0,0,0,0,0,0,0],"id":25,"left_children":[1,3,5,7,9,11,13,-1,-1,-1,-1,-1,-1,-1,-1],"loss_changes":[1.7464288E6,1.3234862E5,9.274325E4,2.3153812E4,3.5850176E4,2.3370938E4,2.0029812E4,0E0,0E0,0E0,0E0,0E0,0E0,0E0,0E0],"parents":[2147483647,0,0,1,1,2,2,3,3,4,4,5,5,6,6],"right_children":[2,4,6,8,10,12,14,-1,-1,-1,-1,-1,-1,-1,-1],"split_conditions":[8.208726E-2,-6.09276E-1,1.5913702E0,-9.8668003E-1,-3.52235E-1,1.0254867E0,1.9566249E0,-3.697193E0,-2.5451877E0,-1.4496523E0,3.8123444E-1,2.5348713E0,3.9786282E0,5.5893273E0,8.602573E0],"split_indices":[9,1,1,1,1,1,1,0,0,0,0,0,0,0,0],"split_type":[0,0,0,0,0,0,0,0,0,0,0,0,0,0,0],"sum_hessian":[1.949E3,1.278E3,6.71E2,7.69E2,5.09E2,5.1E2,1.61E2,2.9E2,4.79E2,3.57E2,1.52E2,1.83E2,3.27E2,1.29E2,3.2E1],"tree_param":{"num_deleted":"0","num_feature":"39","num_nodes":"15","size_leaf_vector":"1"}},{"base_weights":[1.1617422E-1,-2.1697952E1,3.3502106E1,-2.8985239E1,-1.4261718E1,2.1894945E1,4.6692795E1,-3.949096E0,-2.6600807E0,-1.7489119E0,-7.8489894E-1,1.1630529E0,2.8914583E0,4.3432436E0,7.768388E0],"categories":[],"categories_nodes":[],"categories_segments":[],"categories_sizes":[],"default_left":[0,0,0,0,0,0,0,0,0,0,0,0,0,0,0],"id":26,"left_children":[1,3,5,7,9,11,13,-1,-1,-1,-1,-1,-1,-1,-1],"loss_changes":[1.4208826E6,6.3530812E4,1.1702281E5,1.3854375E4,1.1990844E4,2.934936E4,3.3001125E4,0E0,0E0,0E0,0E0,0E0,0E0,0E0,0E0],"parents":[2147483647,0,0,1,1,2,2,3,3,4,4,5,5,6,6],"right_children":[2,4,6,8,10,12,14,-1,-1,-1,-1,-1,-1,-1,-1],"split_conditions":[-1.1373651E-2,-8.225728E-1,1.2456577E0,-1.0547112E0,-4.804017E-1,8.2055366E-1,1.967399E0,-3.949096E0,-2.6600807E0,-1.7489119E0,-7.8489894E-1,1.1630529E0,2.8914583E0,4.3432436E0,7.768388E0],"split_indices":[0,0,0,0,0,0,0,0,0,0,0,0,0,0,0],"split_type":[0,0,0,0,0,0,0,0,0,0,0,0,0,0,0],"sum_hessian":[1.949E3,1.179E3,7.7E2,5.94E2,5.85E2,4.11E2,3.59E2,1.07E2,4.87E2,3.88E2,1.97E2,1.68E2,2.43E2,3.27E2,3.2E1],"tree_param":{"num_deleted":"0","num_feature":"39","num_nodes":"15","size_leaf_vector":"1"}},{"base_weights":[1.0815467E-1,-1.7505264E1,3.3631153E1,-2.4375929E1,-7.36443E0,2.7865734E1,5.0492176E1,-3.026882E0,-2.0850797E0,-1.2584995E0,1.06745616E-1,2.3890412E0,3.8972065E0,3.4044704E0,5.8927817E0],"categories":[],"categories_nodes":[],"categories_segments":[],"categories_sizes":[],"default_left":[0,0,0,0,0,0,0,0,0,0,0,0,0,0,0],"id":27,"left_children":[1,3,5,7,9,11,13,-1,-1,-1,-1,-1,-1,-1,-1],"loss_changes":[1.1519752E6,8.8933875E4,6.3918688E4,1.5198094E4,2.2815389E4,2.1277E4,2.1580469E4,0E0,0E0,0E0,0E0,0E0,0E0,0E0,0E0],"parents":[2147483647,0,0,1,1,2,2,3,3,4,4,5,5,6,6],"right_children":[2,4,6,8,10,12,14,-1,-1,-1,-1,-1,-1,-1,-1],"split_conditions":[6.437934E-1,-6.242167E-1,1.5844729E0,-9.8732936E-1,-3.80765E-1,5.0878054E-1,-3.1998488E-1,-3.026882E0,-2.0850797E0,-1.2584995E0,1.06745616E-1,2.3890412E0,3.8972065E0,3.4044704E0,5.8927817E0],"split_indices":[2,21,33,33,2,4,4,0,0,0,0,0,0,0,0],"split_type":[0,0,0,0,0,0,0,0,0,0,0,0,0,0,0],"sum_hessian":[1.949E3,1.278E3,6.71E2,7.61E2,5.17E2,5.02E2,1.69E2,2.82E2,4.79E2,3.19E2,1.98E2,3.72E2,1.3E2,5.9E1,1.1E2],"tree_param":{"num_deleted":"0","num_feature":"39","num_nodes":"15","size_leaf_vector":"1"}},{"base_weights":[1.0211661E-1,-1.7634863E1,2.7248075E1,-2.3995712E1,-1.1928728E1,1.915373E1,4.046053E1,-3.7065036E0,-2.2313669E0,-1.4418777E0,-6.498531E-1,9.9172634E-1,2.5171013E0,3.717566E0,6.511525E0],"categories":[],"categories_nodes":[],"categories_segments":[],"categories_sizes":[],"default_left":[0,0,0,0,0,0,0,0,0,0,0,0,0,0,0],"id":28,"left_children":[1,3,5,7,9,11,13,-1,-1,-1,-1,-1,-1,-1,-1],"loss_changes":[9.393808E5,4.2542906E4,8.16805E4,1.14175625E4,8.34368E3,2.6428016E4,2.1227656E4,0E0,0E0,0E0,0E0,0E0,0E0,0E0,0E0],"parents":[2147483647,0,0,1,1,2,2,3,3,4,4,5,5,6,6],"right_children":[2,4,6,8,10,12,14,-1,-1,-1,-1,-1,-1,-1,-1],"split_conditions":[-1.1373651E-2,-8.4107816E-1,1.328216E0,-1.0680605E0,-4.804017E-1,8.2383186E-1,1.967399E0,-3.7065036E0,-2.2313669E0,-1.4418777E0,-6.498531E-1,9.9172634E-1,2.5171013E0,3.717566E0,6.511525E0],"split_indices":[0,0,1,1,0,8,0,0,0,0,0,0,0,0,0],"split_type":[0,0,0,0,0,0,0,0,0,0,0,0,0,0,0],"sum_hessian":[1.949E3,1.179E3,7.7E2,5.56E2,6.23E2,4.79E2,2.91E2,6.1E1,4.95E2,4.26E2,1.97E2,1.9E2,2.89E2,2.59E2,3.2E1],"tree_param":{"num_deleted":"0","num_feature":"39","num_nodes":"15","size_leaf_vector":"1"}},{"base_weights":[9.484067E-2,-1.424436E1,2.7386126E1,-1.9611927E1,-5.703381E0,2.1946245E1,4.011451E1,-3.0771177E0,-1.8086065E0,-8.436602E-1,5.1772064E-1,1.8703841E0,3.341213E0,2.6523728E0,4.6170683E0],"categories":[],"categories_nodes":[],"categories_segments":[],"categories_sizes":[],"default_left":[0,0,0,0,0,0,0,0,0,0,0,0,0,0,0],"id":29,"left_children":[1,3,5,7,9,11,13,-1,-1,-1,-1,-1,-1,-1,-1],"loss_changes":[7.6349375E5,5.852297E4,4.564947E4,1.28100625E4,1.4764506E4,1.6959812E4,1.5237031E4,0E0,0E0,0E0,0E0,0E0,0E0,0E0,0E0],"parents":[2147483647,0,0,1,1,2,2,3,3,4,4,5,5,6,6],"right_children":[2,4,6,8,10,12,14,-1,-1,-1,-1,-1,-1,-1,-1],"split_conditions":[8.208726E-2,-6.019405E-1,1.487413E0,-1.0542818E0,-1.1373651E-2,5.8266544E-1,-3.1998488E-1,-3.0771177E0,-1.8086065E0,-8.436602E-1,5.1772064E-1,1.8703841E0,3.341213E0,2.6523728E0,4.6170683E0],"split_indices":[9,1,1,1,0,4,4,0,0,0,0,0,0,0,0],"split_type":[0,0,0,0,0,0,0,0,0,0,0,0,0,0,0],"sum_hessian":[1.949E3,1.278E3,6.71E2,7.84E2,4.94E2,4.72E2,1.99E2,9.2E1,6.92E2,3.95E2,9.9E1,3.7E2,1.02E2,6.3E1,1.36E2],"tree_param":{"num_deleted":"0","num_feature":"39","num_nodes":"15","size_leaf_vector":"1"}},{"base_weights":[8.9093626E-2,-1.2823996E1,2.4666105E1,-1.7909788E1,-5.3178205E0,2.1539032E1,4.3665142E1,-3.039082E0,-1.6780354E0,-9.1636115E-1,8.930885E-2,1.5646348E0,2.600067E0,2.0381644E0,4.9682555E0],"categories":[],"categories_nodes":[],"categories_segments":[],"categories_sizes":[],"default_left":[0,0,0,0,0,0,0,0,0,0,0,0,0,0,0],"id":30,"left_children":[1,3,5,7,9,11,13,-1,-1,-1,-1,-1,-1,-1,-1],"loss_changes":[6.191784E5,4.873039E4,3.8983938E4,1.02315625E4,1.2381059E4,1.4815719E4,1.2157375E4,0E0,0E0,0E0,0E0,0E0,0E0,0E0,0E0],"parents":[2147483647,0,0,1,1,2,2,3,3,4,4,5,5,6,6],"right_children":[2,4,6,8,10,12,14,-1,-1,-1,-1,-1,-1,-1,-1],"split_conditions":[8.208726E-2,-6.242167E-1,1.6916994E0,-1.0680605E0,-3.7820998E-1,1.148007E0,-6.7961454E-1,-3.039082E0,-1.6780354E0,-9.1636115E-1,8.930885E-2,1.5646348E0,2.600067E0,2.0381644E0,4.9682555E0],"split_indices":[9,32,1,1,1,1,4,0,0,0,0,0,0,0,0],"split_type":[0,0,0,0,0,0,0,0,0,0,0,0,0,0,0],"sum_hessian":[1.949E3,1.278E3,6.71E2,7.61E2,5.17E2,5.78E2,9.3E1,6.1E1,7E2,3.19E2,1.98E2,2.51E2,3.27E2,2E1,7.3E1],"tree_param":{"num_deleted":"0","num_feature":"39","num_nodes":"15","size_leaf_vector":"1"}},{"base_weights":[8.307786E-2,-1.2902424E1,1.995702E1,-1.8536633E1,-9.0124855E0,1.2501349E1,2.8087818E1,-2.7400744E0,-1.7183987E0,-1.0995255E0,-5.06757E-1,6.910038E-1,1.7841978E0,2.6085153E0,5.4521E0],"categories":[],"categories_nodes":[],"categories_segments":[],"categories_sizes":[],"default_left":[0,0,0,0,0,0,0,0,0,0,0,0,0,0,0],"id":31,"left_children":[1,3,5,7,9,11,13,-1,-1,-1,-1,-1,-1,-1,-1],"loss_changes":[5.035001E5,2.5694672E4,4.6387312E4,5.2963438E3,5.419578E3,1.1940602E4,1.8058594E4,0E0,0E0,0E0,0E0,0E0,0E0,0E0,0E0],"parents":[2147483647,0,0,1,1,2,2,3,3,4,4,5,5,6,6],"right_children":[2,4,6,8,10,12,14,-1,-1,-1,-1,-1,-1,-1,-1],"split_conditions":[-1.1373651E-2,-8.725845E-1,1.2350467E0,-1.0680605E0,-4.961716E-1,8.550182E-1,1.9995201E0,-2.7400744E0,-1.7183987E0,-1.0995255E0,-5.06757E-1,6.910038E-1,1.7841978E0,2.6085153E0,5.4521E0],"split_indices":[0,0,0,1,1,0,1,0,0,0,0,0,0,0,0],"split_type":[0,0,0,0,0,0,0,0,0,0,0,0,0,0,0],"sum_hessian":[1.949E3,1.179E3,7.7E2,4.8E2,6.99E2,4.03E2,3.67E2,6.1E1,4.19E2,4.64E2,2.35E2,1.98E2,2.05E2,3.43E2,2.4E1],"tree_param":{"num_deleted":"0","num_feature":"39","num_nodes":"15","size_leaf_vector":"1"}},{"base_weights":[7.7064365E-2,-1.1334154E1,1.8429495E1,-1.6692251E1,-7.753823E0,1.3108119E1,2.7482327E1,-2.4704857E0,-1.5469694E0,-9.5723104E-1,-2.9173428E-1,6.341874E-1,1.6780083E0,2.5210116E0,4.9286933E0],"categories":[],"categories_nodes":[],"categories_segments":[],"categories_sizes":[],"default_left":[0,0,0,0,0,0,0,0,0,0,0,0,0,0,0],"id":32,"left_children":[1,3,5,7,9,11,13,-1,-1,-1,-1,-1,-1,-1,-1],"loss_changes":[4.0858484E5,2.294864E4,3.567358E4,4.3296406E3,6.330914E3,1.1645461E4,1.24318125E4,0E0,0E0,0E0,0E0,0E0,0E0,0E0,0E0],"parents":[2147483647,0,0,1,1,2,2,3,3,4,4,5,5,6,6],"right_children":[2,4,6,8,10,12,14,-1,-1,-1,-1,-1,-1,-1,-1],"split_conditions":[-4.4974726E-2,-8.725845E-1,1.3386409E0,-1.0680605E0,-4.667057E-1,8.2383186E-1,1.9995201E0,-2.4704857E0,-1.5469694E0,-9.5723104E-1,-2.9173428E-1,6.341874E-1,1.6780083E0,2.5210116E0,4.9286933E0],"split_indices":[17,0,0,1,1,8,1,0,0,0,0,0,0,0,0],"split_type":[0,0,0,0,0,0,0,0,0,0,0,0,0,0,0],"sum_hessian":[1.949E3,1.202E3,7.47E2,4.8E2,7.22E2,4.72E2,2.75E2,6.1E1,4.19E2,5.24E2,1.98E2,1.67E2,3.05E2,2.51E2,2.4E1],"tree_param":{"num_deleted":"0","num_feature":"39","num_nodes":"15","size_leaf_vector":"1"}},{"base_weights":[7.1669534E-2,-9.389511E0,1.8078781E1,-1.31546755E1,-3.8326688E0,1.5957567E1,3.5809654E1,-1.9754943E0,-1.1865633E0,-6.629199E-1,9.8981515E-2,1.3055524E0,2.3961027E0,1.5202111E0,4.4751773E0],"categories":[],"categories_nodes":[],"categories_segments":[],"categories_sizes":[],"default_left":[0,0,0,0,0,0,0,0,0,0,0,0,0,0,0],"id":33,"left_children":[1,3,5,7,9,11,13,-1,-1,-1,-1,-1,-1,-1,-1],"loss_changes":[3.3238838E5,2.6709352E4,2.4703156E4,6.2487188E3,6.992422E3,1.3669469E4,1.2403211E4,0E0,0E0,0E0,0E0,0E0,0E0,0E0,0E0],"parents":[2147483647,0,0,1,1,2,2,3,3,4,4,5,5,6,6],"right_children":[2,4,6,8,10,12,14,-1,-1,-1,-1,-1,-1,-1,-1],"split_conditions":[8.208726E-2,-6.242167E-1,1.7553747E0,-1.0486735E0,-3.749803E-1,5.0878054E-1,-4.6406314E-1,-1.9754943E0,-1.1865633E0,-6.629199E-1,9.8981515E-2,1.3055524E0,2.3961027E0,1.5202111E0,4.4751773E0],"split_indices":[9,32,0,0,0,4,4,0,0,0,0,0,0,0,0],"split_type":[0,0,0,0,0,0,0,0,0,0,0,0,0,0,0],"sum_hessian":[1.949E3,1.278E3,6.71E2,7.61E2,5.17E2,6.01E2,7E1,1.22E2,6.39E2,3.27E2,1.9E2,4.43E2,1.58E2,2.2E1,4.8E1],"tree_param":{"num_deleted":"0","num_feature":"39","num_nodes":"15","size_leaf_vector":"1"}},{"base_weights":[6.75585E-2,-8.182472E0,1.6927889E1,-1.1932094E1,-3.0919924E0,5.6468496E0,1.9898329E1,-1.5172994E0,-9.6100706E-1,-5.901198E-1,1.6137713E-1,1.018869E0,-4.3075237E-1,1.6684273E0,3.249645E0],"categories":[],"categories_nodes":[],"categories_segments":[],"categories_sizes":[],"default_left":[0,0,0,0,0,0,0,0,0,0,0,0,0,0,0],"id":34,"left_children":[1,3,5,7,9,11,13,-1,-1,-1,-1,-1,-1,-1,-1],"loss_changes":[2.713801E5,2.496757E4,2.1367312E4,5.528367E3,7.3727617E3,6.147397E3,1.9986781E4,0E0,0E0,0E0,0E0,0E0,0E0,0E0,0E0],"parents":[2147483647,0,0,1,1,2,2,3,3,4,4,5,5,6,6],"right_children":[2,4,6,8,10,12,14,-1,-1,-1,-1,-1,-1,-1,-1],"split_conditions":[7.29377E-1,-6.2336296E-1,-6.64324E-1,-9.80395E-1,-2.0607924E-1,-7.73476E-3,1.6335843E0,-1.5172994E0,-9.6100706E-1,-5.901198E-1,1.6137713E-1,1.018869E0,-4.3075237E-1,1.6684273E0,3.249645E0],"split_indices":[1,1,4,1,20,3,1,0,0,0,0,0,0,0,0],"split_type":[0,0,0,0,0,0,0,0,0,0,0,0,0,0,0],"sum_hessian":[1.949E3,1.309E3,6.4E2,7.53E2,5.56E2,1.34E2,5.06E2,3.12E2,4.41E2,3.48E2,2.08E2,9.2E1,4.2E1,4.05E2,1.01E2],"tree_param":{"num_deleted":"0","num_feature":"39","num_nodes":"15","size_leaf_vector":"1"}},{"base_weights":[6.213216E-2,-8.300731E0,1.3511948E1,-1.1382545E1,-4.8697515E0,8.841154E0,1.9939602E1,-1.4836318E0,-9.856512E-1,-7.108256E-1,-1.8406557E-1,3.091074E-1,1.4000218E0,1.1665114E0,2.3751676E0],"categories":[],"categories_nodes":[],"categories_segments":[],"categories_sizes":[],"default_left":[0,0,0,0,0,0,0,0,0,0,0,0,0,0,0],"id":35,"left_children":[1,3,5,7,9,11,13,-1,-1,-1,-1,-1,-1,-1,-1],"loss_changes":[2.1944614E5,1.2664664E4,2.228036E4,3.190039E3,3.858665E3,1.2861012E4,9.62743E3,0E0,0E0,0E0,0E0,0E0,0E0,0E0,0E0],"parents":[2147483647,0,0,1,1,2,2,3,3,4,4,5,5,6,6],"right_children":[2,4,6,8,10,12,14,-1,-1,-1,-1,-1,-1,-1,-1],"split_conditions":[-3.0586243E-1,-8.089319E-1,1.308874E0,-1.0190638E0,1.5405588E-1,1.1689797E-2,-4.1820136E-1,-1.4836318E0,-9.856512E-1,-7.108256E-1,-1.8406557E-1,3.091074E-1,1.4000218E0,1.1665114E0,2.3751676E0],"split_indices":[21,15,33,33,4,4,4,0,0,0,0,0,0,0,0],"split_type":[0,0,0,0,0,0,0,0,0,0,0,0,0,0,0],"sum_hessian":[1.949E3,1.202E3,7.47E2,6.32E2,5.7E2,4.34E2,3.13E2,1.91E2,4.41E2,3.27E2,2.43E2,2.06E2,2.28E2,1E2,2.13E2],"tree_param":{"num_deleted":"0","num_feature":"39","num_nodes":"15","size_leaf_vector":"1"}},{"base_weights":[5.689674E-2,-6.680276E0,1.3825444E1,-8.965071E0,-9.3820906E-1,1.2068832E1,2.7757841E1,-1.2374147E0,-7.243461E-1,-3.917115E-1,2.399427E-1,1.271808E0,7.356262E-2,3.1682584E0,6.486572E-2],"categories":[],"categories_nodes":[],"categories_segments":[],"categories_sizes":[],"default_left":[0,0,0,0,0,0,0,0,0,0,0,0,0,0,0],"id":36,"left_children":[1,3,5,7,9,11,13,-1,-1,-1,-1,-1,-1,-1,-1],"loss_changes":[1.8097647E5,1.7178055E4,1.5352719E4,5.409711E3,3.7278945E3,4.1920938E3,7.5335977E3,0E0,0E0,0E0,0E0,0E0,0E0,0E0,0E0],"parents":[2147483647,0,0,1,1,2,2,3,3,4,4,5,5,6,6],"right_children":[2,4,6,8,10,12,14,-1,-1,-1,-1,-1,-1,-1,-1],"split_conditions":[7.29377E-1,-4.986709E-1,1.7553747E0,-9.80395E-1,-2.0607924E-1,2.6612904E0,1.9336851E0,-1.2374147E0,-7.243461E-1,-3.917115E-1,2.399427E-1,1.271808E0,7.356262E-2,3.1682584E0,6.486572E-2],"split_indices":[1,13,0,1,20,14,36,0,0,0,0,0,0,0,0],"split_type":[0,0,0,0,0,0,0,0,0,0,0,0,0,0,0],"sum_hessian":[1.949E3,1.309E3,6.4E2,9.36E2,3.73E2,5.7E2,7E1,3.12E2,6.24E2,1.97E2,1.76E2,5.39E2,3.1E1,6.1E1,9E0],"tree_param":{"num_deleted":"0","num_feature":"39","num_nodes":"15","size_leaf_vector":"1"}},{"base_weights":[5.2464113E-2,-5.757522E0,1.3040539E1,-7.793894E0,2.0849894E-1,1.0742658E1,2.1830397E1,-1.0721229E0,-6.049246E-1,-3.1631455E-1,2.68112E-1,3.3327255E0,1.0337965E0,8.93826E-2,2.5148413E0],"categories":[],"categories_nodes":[],"categories_segments":[],"categories_sizes":[],"default_left":[0,0,0,0,0,0,0,0,0,0,0,0,0,0,0],"id":37,"left_children":[1,3,5,7,9,11,13,-1,-1,-1,-1,-1,-1,-1,-1],"loss_changes":[1.4722311E5,1.6378527E4,1.1944914E4,5.0678516E3,2.876339E3,4.0425742E3,8.591543E3,0E0,0E0,0E0,0E0,0E0,0E0,0E0,0E0],"parents":[2147483647,0,0,1,1,2,2,3,3,4,4,5,5,6,6],"right_children":[2,4,6,8,10,12,14,-1,-1,-1,-1,-1,-1,-1,-1],"split_conditions":[8.2055366E-1,-4.667057E-1,1.6718102E0,-9.4748914E-1,-8.859796E-2,-3.321703E-1,4.5312864E-1,-1.0721229E0,-6.049246E-1,-3.1631455E-1,2.68112E-1,3.3327255E0,1.0337965E0,8.93826E-2,2.5148413E0],"split_indices":[0,1,15,6,20,18,22,0,0,0,0,0,0,0,0],"split_type":[0,0,0,0,0,0,0,0,0,0,0,0,0,0,0],"sum_hessian":[1.949E3,1.347E3,6.02E2,1.004E3,3.43E2,4.79E2,1.23E2,3.73E2,6.31E2,1.45E2,1.98E2,7E0,4.72E2,1.7E1,1.06E2],"tree_param":{"num_deleted":"0","num_feature":"39","num_nodes":"15","size_leaf_vector":"1"}},{"base_weights":[4.9896114E-2,-5.185025E0,1.1752424E1,-7.271358E0,-4.275526E-1,1.041856E1,2.459537E1,-1.5143924E0,-6.705867E-1,-8.841505E-2,1.8016094E0,1.7552712E0,9.250242E-1,2.9403062E0,-4.6031494E-2],"categories":[],"categories_nodes":[],"categories_segments":[],"categories_sizes":[],"default_left":[0,0,0,0,0,0,0,0,0,0,0,0,0,0,0],"id":38,"left_children":[1,3,5,7,9,11,13,-1,-1,-1,-1,-1,-1,-1,-1],"loss_changes":[1.1952148E5,1.3376691E4,1.0073586E4,4.0698438E3,3.4855166E3,4.4051875E3,6.759289E3,0E0,0E0,0E0,0E0,0E0,0E0,0E0,0E0],"parents":[2147483647,0,0,1,1,2,2,3,3,4,4,5,5,6,6],"right_children":[2,4,6,8,10,12,14,-1,-1,-1,-1,-1,-1,-1,-1],"split_conditions":[8.1653166E-1,-4.9835467E-1,1.8209584E0,-1.0680605E0,2.4959726E0,-2.1001616E-2,1.9336851E0,-1.5143924E0,-6.705867E-1,-8.841505E-2,1.8016094E0,1.7552712E0,9.250242E-1,2.9403062E0,-4.6031494E-2],"split_indices":[1,1,0,1,3,18,36,0,0,0,0,0,0,0,0],"split_type":[0,0,0,0,0,0,0,0,0,0,0,0,0,0,0],"sum_hessian":[1.949E3,1.347E3,6.02E2,9.36E2,4.11E2,5.47E2,5.5E1,6.1E1,8.75E2,4.02E2,9E0,7.5E1,4.72E2,4.6E1,9E0],"tree_param":{"num_deleted":"0","num_feature":"39","num_nodes":"15","size_leaf_vector":"1"}},{"base_weights":[4.7523912E-2,-4.574706E0,1.0946676E1,-6.148165E0,9.3966144E-1,8.753806E0,2.1534655E1,-7.886661E-1,-3.4659407E-1,-2.4563698E-1,5.234341E-1,7.633579E-1,2.602793E0,1.8657017E0,3.196847E0],"categories":[],"categories_nodes":[],"categories_segments":[],"categories_sizes":[],"default_left":[0,0,0,0,0,0,0,0,0,0,0,0,0,0,0],"id":39,"left_children":[1,3,5,7,9,11,13,-1,-1,-1,-1,-1,-1,-1,-1],"loss_changes":[9.8287945E4,1.1892762E4,1.33011875E4,4.943465E3,4.461241E3,9.147824E3,2.3760117E3,0E0,0E0,0E0,0E0,0E0,0E0,0E0,0E0],"parents":[2147483647,0,0,1,1,2,2,3,3,4,4,5,5,6,6],"right_children":[2,4,6,8,10,12,14,-1,-1,-1,-1,-1,-1,-1,-1],"split_conditions":[8.2383186E-1,-3.9962465E-1,7.179559E-1,1.7813176E-1,1.5067402E-1,1.9566249E0,1.6916994E0,-7.886661E-1,-3.4659407E-1,-2.4563698E-1,5.234341E-1,7.633579E-1,2.602793E0,1.8657017E0,3.196847E0],"split_indices":[8,1,4,4,4,1,1,0,0,0,0,0,0,0,0],"split_type":[0,0,0,0,0,0,0,0,0,0,0,0,0,0,0],"sum_hessian":[1.949E3,1.369E3,5.8E2,1.065E3,3.04E2,4.82E2,9.8E1,6.45E2,4.2E2,1.7E2,1.34E2,4.54E2,2.8E1,7.9E1,1.9E1],"tree_param":{"num_deleted":"0","num_feature":"39","num_nodes":"15","size_leaf_vector":"1"}},{"base_weights":[4.667072E-2,-4.0757565E0,9.96056E0,-5.503789E0,1.348059E0,6.975901E-1,1.2386982E1,-7.13573E-1,-2.899751E-1,2.2785425E0,9.6589394E-2,-4.7131877E0,1.9076817E-1,1.1348522E0,2.9753025E0],"categories":[],"categories_nodes":[],"categories_segments":[],"categories_sizes":[],"default_left":[0,0,0,0,0,0,0,0,0,0,0,0,0,0,0],"id":40,"left_children":[1,3,5,7,9,11,13,-1,-1,-1,-1,-1,-1,-1,-1],"loss_changes":[7.97357E4,1.0680559E4,1.2870043E4,4.61566E3,2.337464E3,7.0352773E3,7.849758E3,0E0,0E0,0E0,0E0,0E0,0E0,0E0,0E0],"parents":[2147483647,0,0,1,1,2,2,3,3,4,4,5,5,6,6],"right_children":[2,4,6,8,10,12,14,-1,-1,-1,-1,-1,-1,-1,-1],"split_conditions":[8.550182E-1,-3.114373E-2,-6.64324E-1,1.7813176E-1,-4.0391433E-1,-2.4311732E-1,1.9635944E0,-7.13573E-1,-2.899751E-1,2.2785425E0,9.6589394E-2,-4.7131877E0,1.9076817E-1,1.1348522E0,2.9753025E0],"split_indices":[0,20,4,4,21,16,33,0,0,0,0,0,0,0,0],"split_type":[0,0,0,0,0,0,0,0,0,0,0,0,0,0,0],"sum_hessian":[1.949E3,1.377E3,5.72E2,1.09E3,2.87E2,1.19E2,4.53E2,6.69E2,4.21E2,4E0,2.83E2,2E0,1.17E2,4.29E2,2.4E1],"tree_param":{"num_deleted":"0","num_feature":"39","num_nodes":"15","size_leaf_vector":"1"}},{"base_weights":[4.2481642E-2,-3.9897847E0,8.41859E0,-6.9762845E0,-1.9052467E0,6.0216637E0,1.5031362E1,-1.3540367E0,-6.3389343E-1,-4.1686726E-1,1.0161816E-1,1.0265855E0,2.941212E-1,1.362398E0,3.8381321E0],"categories":[],"categories_nodes":[],"categories_segments":[],"categories_sizes":[],"default_left":[0,0,0,0,0,0,0,0,0,0,0,0,0,0,0],"id":41,"left_children":[1,3,5,7,9,11,13,-1,-1,-1,-1,-1,-1,-1,-1],"loss_changes":[6.589425E4,8.1856543E3,9.958594E3,2.177504E3,5.142099E3,6.075375E3,4.997957E3,0E0,0E0,0E0,0E0,0E0,0E0,0E0,0E0],"parents":[2147483647,0,0,1,1,2,2,3,3,4,4,5,5,6,6],"right_children":[2,4,6,8,10,12,14,-1,-1,-1,-1,-1,-1,-1,-1],"split_conditions":[-1.471375E-1,-5.510266E-1,5.0878054E-1,-1.0760803E0,1.5405588E-1,1.2513889E0,1.9770097E0,-1.3540367E0,-6.3389343E-1,-4.1686726E-1,1.0161816E-1,1.0265855E0,2.941212E-1,1.362398E0,3.8381321E0],"split_indices":[10,25,4,1,4,10,6,0,0,0,0,0,0,0,0],"split_type":[0,0,0,0,0,0,0,0,0,0,0,0,0,0,0],"sum_hessian":[1.949E3,1.316E3,6.33E2,5.4E2,7.76E2,4.66E2,1.67E2,4.6E1,4.94E2,4.37E2,3.39E2,1.95E2,2.71E2,1.59E2,8E0],"tree_param":{"num_deleted":"0","num_feature":"39","num_nodes":"15","size_leaf_vector":"1"}},{"base_weights":[4.0396743E-2,-3.3960834E0,8.1435585E0,-5.3159304E0,-5.066118E-1,7.557565E0,2.605228E1,-5.1569676E-1,-2.6101878E0,-1.5011095E-1,3.804578E-1,1.5634326E0,6.5107185E-1,3.4292562E0,8.2043284E-1],"categories":[],"categories_nodes":[],"categories_segments":[],"categories_sizes":[],"default_left":[0,0,0,0,0,0,0,0,0,0,0,0,0,0,0],"id":42,"left_children":[1,3,5,7,9,11,13,-1,-1,-1,-1,-1,-1,-1,-1],"loss_changes":[5.4328047E4,7.597168E3,5.9003555E3,2.5847441E3,2.3552434E3,4.6669004E3,2.3659512E3,0E0,0E0,0E0,0E0,0E0,0E0,0E0,0E0],"parents":[2147483647,0,0,1,1,2,2,3,3,4,4,5,5,6,6],"right_children":[2,4,6,8,10,12,14,-1,-1,-1,-1,-1,-1,-1,-1],"split_conditions":[8.2383186E-1,-5.599529E-1,2.020488E0,-3.7138894E-1,4.8891062E-1,-2.1001616E-2,2.0423114E0,-5.1569676E-1,-2.6101878E0,-1.5011095E-1,3.804578E-1,1.5634326E0,6.5107185E-1,3.4292562E0,8.2043284E-1],"split_indices":[8,1,1,38,16,18,11,0,0,0,0,0,0,0,0],"split_type":[0,0,0,0,0,0,0,0,0,0,0,0,0,0,0],"sum_hessian":[1.949E3,1.369E3,5.8E2,8.22E2,5.47E2,5.63E2,1.7E1,8.17E2,5E0,4.45E2,1.02E2,6.3E1,5E2,1.1E1,6E0],"tree_param":{"num_deleted":"0","num_feature":"39","num_nodes":"15","size_leaf_vector":"1"}},{"base_weights":[3.816425E-2,-3.009682E0,7.5147605E0,-4.5099154E0,1.20825194E-1,1.1199834E1,4.719133E0,-8.6287755E-1,-3.7937745E-1,-1.1478602E-1,2.824753E-1,8.089976E-1,1.6885338E0,-6.374661E-1,5.91873E-1],"categories":[],"categories_nodes":[],"categories_segments":[],"categories_sizes":[],"default_left":[0,0,0,0,0,0,0,0,0,0,0,0,0,0,0],"id":43,"left_children":[1,3,5,7,9,11,13,-1,-1,-1,-1,-1,-1,-1,-1],"loss_changes":[4.4458273E4,6.509882E3,5.76783E3,2.7311191E3,1.5469374E3,4.159908E3,4.3362393E3,0E0,0E0,0E0,0E0,0E0,0E0,0E0,0E0],"parents":[2147483647,0,0,1,1,2,2,3,3,4,4,5,5,6,6],"right_children":[2,4,6,8,10,12,14,-1,-1,-1,-1,-1,-1,-1,-1],"split_conditions":[8.639915E-1,-4.986709E-1,1.2936457E0,-1.0376229E0,1.0621336E-1,1.0207566E0,1.7609662E-1,-8.6287755E-1,-3.7937745E-1,-1.1478602E-1,2.824753E-1,8.089976E-1,1.6885338E0,-6.374661E-1,5.91873E-1],"split_indices":[0,13,10,1,14,10,20,0,0,0,0,0,0,0,0],"split_type":[0,0,0,0,0,0,0,0,0,0,0,0,0,0,0],"sum_hessian":[1.949E3,1.385E3,5.64E2,9.36E2,4.49E2,2.42E2,3.22E2,1.37E2,7.99E2,3.06E2,1.43E2,1.58E2,8.4E1,3.1E1,2.91E2],"tree_param":{"num_deleted":"0","num_feature":"39","num_nodes":"15","size_leaf_vector":"1"}},{"base_weights":[3.5053678E-2,-2.9242358E0,6.29867E0,-5.498199E0,-1.5307201E0,9.649584E0,3.795912E0,-1.2329422E0,-4.981846E-1,-1.3321929E-1,-1.6750355E0,8.8151836E-1,3.25896E0,2.0546885E-1,1.0854489E0],"categories":[],"categories_nodes":[],"categories_segments":[],"categories_sizes":[],"default_left":[0,0,0,0,0,0,0,0,0,0,0,0,0,0,0],"id":44,"left_children":[1,3,5,7,9,11,13,-1,-1,-1,-1,-1,-1,-1,-1],"loss_changes":[3.6163336E4,4.744172E3,5.213336E3,1.5787832E3,2.5792075E3,4.8234062E3,4.4022993E3,0E0,0E0,0E0,0E0,0E0,0E0,0E0,0E0],"parents":[2147483647,0,0,1,1,2,2,3,3,4,4,5,5,6,6],"right_children":[2,4,6,8,10,12,14,-1,-1,-1,-1,-1,-1,-1,-1],"split_conditions":[-1.4265135E-1,-8.8948536E-1,1.2936457E0,-1.0829746E0,2.888564E0,2.0515146E0,2.0560064E0,-1.2329422E0,-4.981846E-1,-1.3321929E-1,-1.6750355E0,8.8151836E-1,3.25896E0,2.0546885E-1,1.0854489E0],"split_indices":[10,1,10,1,14,6,10,0,0,0,0,0,0,0,0],"split_type":[0,0,0,0,0,0,0,0,0,0,0,0,0,0,0],"sum_hessian":[1.949E3,1.324E3,6.25E2,4.64E2,8.6E2,2.66E2,3.59E2,3.1E1,4.33E2,8.5E2,1E1,2.58E2,8E0,2.89E2,7E1],"tree_param":{"num_deleted":"0","num_feature":"39","num_nodes":"15","size_leaf_vector":"1"}},{"base_weights":[3.2534633E-2,-3.1517756E0,4.9060154E0,-4.4496E0,-1.146627E0,-5.626766E0,6.0827456E0,-4.6495366E-1,1.3825982E0,-5.206154E-1,-2.7676273E-2,-4.569336E0,-3.9711538E-1,2.2643518E-1,8.5834473E-1],"categories":[],"categories_nodes":[],"categories_segments":[],"categories_sizes":[],"default_left":[0,0,0,0,0,0,0,0,0,0,0,0,0,0,0],"id":45,"left_children":[1,3,5,7,9,11,13,-1,-1,-1,-1,-1,-1,-1,-1],"loss_changes":[3.0276877E4,3.0656504E3,9.590189E3,2.6805186E3,1.6405845E3,4.9926553E3,6.607338E3,0E0,0E0,0E0,0E0,0E0,0E0,0E0,0E0],"parents":[2147483647,0,0,1,1,2,2,3,3,4,4,5,5,6,6],"right_children":[2,4,6,8,10,12,14,-1,-1,-1,-1,-1,-1,-1,-1],"split_conditions":[-1.1373651E-2,1.7813176E-1,-1.0332448E0,-1.21436656E-1,-1.0106102E0,-2.4311732E-1,1.0532086E0,-4.6495366E-1,1.3825982E0,-5.206154E-1,-2.7676273E-2,-4.569336E0,-3.9711538E-1,2.2643518E-1,8.5834473E-1],"split_indices":[0,4,4,10,13,16,1,0,0,0,0,0,0,0,0],"split_type":[0,0,0,0,0,0,0,0,0,0,0,0,0,0,0],"sum_hessian":[1.949E3,1.179E3,7.7E2,7.15E2,4.64E2,7.7E1,6.93E2,7.08E2,7E0,8.1E1,3.83E2,2E0,7.5E1,2.75E2,4.18E2],"tree_param":{"num_deleted":"0","num_feature":"39","num_nodes":"15","size_leaf_vector":"1"}},{"base_weights":[2.7469216E-2,-2.4810557E0,5.154053E0,-2.668843E0,1.3909163E1,-1.8744459E0,7.361501E0,-3.8862953E-1,-7.3548995E-2,3.0573383E-2,2.2944145E0,-2.9021645E-1,1.3214917E0,4.6846205E-1,1.485363E0],"categories":[],"categories_nodes":[],"categories_segments":[],"categories_sizes":[],"default_left":[0,0,0,0,0,0,0,0,0,0,0,0,0,0,0],"id":46,"left_children":[1,3,5,7,9,11,13,-1,-1,-1,-1,-1,-1,-1,-1],"loss_changes":[2.5090107E4,4.0691362E3,9.958947E3,3.04762E3,1.8365867E3,2.426525E3,9.717516E3,0E0,0E0,0E0,0E0,0E0,0E0,0E0,0E0],"parents":[2147483647,0,0,1,1,2,2,3,3,4,4,5,5,6,6],"right_children":[2,4,6,8,10,12,14,-1,-1,-1,-1,-1,-1,-1,-1],"split_conditions":[4.5312864E-1,1.7720332E0,-5.198245E-1,1.7813176E-1,1.2711612E0,1.840122E0,1.465125E0,-3.8862953E-1,-7.3548995E-2,3.0573383E-2,2.2944145E0,-2.9021645E-1,1.3214917E0,4.6846205E-1,1.485363E0],"split_indices":[22,10,4,4,6,19,19,0,0,0,0,0,0,0,0],"split_type":[0,0,0,0,0,0,0,0,0,0,0,0,0,0,0],"sum_hessian":[1.949E3,1.309E3,6.4E2,1.295E3,1.4E1,1.53E2,4.87E2,7.94E2,5.01E2,6E0,8E0,1.44E2,9E0,3.6E2,1.27E2],"tree_param":{"num_deleted":"0","num_feature":"39","num_nodes":"15","size_leaf_vector":"1"}},{"base_weights":[2.7200302E-2,-2.231526E0,4.6432753E0,-2.5341556E0,6.5335526E0,-2.6933358E0,6.355628E0,-8.987838E-1,-2.1776855E-1,1.552276E0,-9.191553E-2,-3.6050135E-1,1.5533265E0,3.9509934E-1,1.3184023E0],"categories":[],"categories_nodes":[],"categories_segments":[],"categories_sizes":[],"default_left":[0,0,0,0,0,0,0,0,0,0,0,0,0,0,0],"id":47,"left_children":[1,3,5,7,9,11,13,-1,-1,-1,-1,-1,-1,-1,-1],"loss_changes":[2.0341938E4,3.4914282E3,8.069915E3,2.8952178E3,2.962001E3,2.083245E3,8.486203E3,0E0,0E0,0E0,0E0,0E0,0E0,0E0,0E0],"parents":[2147483647,0,0,1,1,2,2,3,3,4,4,5,5,6,6],"right_children":[2,4,6,8,10,12,14,-1,-1,-1,-1,-1,-1,-1,-1],"split_conditions":[4.5312864E-1,1.6169084E0,-6.680797E-1,-1.4374485E0,2.5430867E-1,1.7275946E0,1.465125E0,-8.987838E-1,-2.1776855E-1,1.552276E0,-9.191553E-2,-3.6050135E-1,1.5533265E0,3.9509934E-1,1.3184023E0],"split_indices":[22,10,4,4,23,38,19,0,0,0,0,0,0,0,0],"split_type":[0,0,0,0,0,0,0,0,0,0,0,0,0,0,0],"sum_hessian":[1.949E3,1.309E3,6.4E2,1.266E3,4.3E1,1.21E2,5.19E2,6.5E1,1.201E3,1.9E1,2.4E1,1.16E2,5E0,3.85E2,1.34E2],"tree_param":{"num_deleted":"0","num_feature":"39","num_nodes":"15","size_leaf_vector":"1"}},{"base_weights":[2.6145067E-2,-1.7324845E0,4.968805E0,-1.6648074E0,-4.952606E0,-5.543548E0,6.1185045E0,-3.455643E-1,-3.1105033E-3,-5.0784364E0,-3.6230445E-1,5.0748795E-1,1.6710976E0],"categories":[],"categories_nodes":[],"categories_segments":[],"categories_sizes":[],"default_left":[0,0,0,0,0,0,0,0,0,0,0,0,0],"id":48,"left_children":[1,3,5,7,-1,9,11,-1,-1,-1,-1,-1,-1],"loss_changes":[1.695861E4,4.572037E3,6.2219746E3,4.207039E3,0E0,4.2471484E3,5.0224062E3,0E0,0E0,0E0,0E0,0E0,0E0],"parents":[2147483647,0,0,1,1,2,2,3,3,5,5,6,6],"right_children":[2,4,6,8,-1,10,12,-1,-1,-1,-1,-1,-1],"split_conditions":[9.7662485E-1,1.1492215E0,-1.1106639E0,-6.835509E-1,-4.952606E0,-2.7114108E-1,1.1217275E0,-3.455643E-1,-3.1105033E-3,-5.0784364E0,-3.6230445E-1,5.0748795E-1,1.6710976E0],"split_indices":[6,2,4,6,0,16,4,0,0,0,0,0,0],"split_type":[0,0,0,0,0,0,0,0,0,0,0,0,0],"sum_hessian":[1.949E3,1.438E3,5.11E2,1.437E3,1E0,5E1,4.61E2,6.85E2,7.52E2,1E0,4.9E1,4.21E2,4E1],"tree_param":{"num_deleted":"0","num_feature":"39","num_nodes":"13","size_leaf_vector":"1"}},{"base_weights":[1.9138357E-2,-1.7156689E0,4.109787E0,-3.0506196E0,1.5766968E-1,2.6422954E0,1.1227854E1,-9.267597E-1,-2.7284247E-1,-1.0920614E-1,4.0868407E-1,-4.4427353E-1,3.6769626E-1,1.2495755E0,-2.8395724E-1],"categories":[],"categories_nodes":[],"categories_segments":[],"categories_sizes":[],"default_left":[0,0,0,0,0,0,0,0,0,0,0,0,0,0,0],"id":49,"left_children":[1,3,5,7,9,11,13,-1,-1,-1,-1,-1,-1,-1,-1],"loss_changes":[1.38452E4,3.4265974E3,6.039286E3,1.5771787E3,2.808306E3,3.5570396E3,1.8012578E3,0E0,0E0,0E0,0E0,0E0,0E0,0E0,0E0],"parents":[2147483647,0,0,1,1,2,2,3,3,4,4,5,5,6,6],"right_children":[2,4,6,8,10,12,14,-1,-1,-1,-1,-1,-1,-1,-1],"split_conditions":[8.2383186E-1,1.5405588E-1,7.179559E-1,-1.0680605E0,-4.2550963E-1,-1.0332448E0,1.8662221E0,-9.267597E-1,-2.7284247E-1,-1.0920614E-1,4.0868407E-1,-4.4427353E-1,3.6769626E-1,1.2495755E0,-2.8395724E-1],"split_indices":[8,4,4,1,6,4,19,0,0,0,0,0,0,0,0],"split_type":[0,0,0,0,0,0,0,0,0,0,0,0,0,0,0],"sum_hessian":[1.949E3,1.369E3,5.8E2,7.99E2,5.7E2,4.82E2,9.8E1,3.8E1,7.61E2,4.33E2,1.37E2,6.1E1,4.21E2,9E1,8E0],"tree_param":{"num_deleted":"0","num_feature":"39","num_nodes":"15","size_leaf_vector":"1"}},{"base_weights":[1.7214544E-2,-1.6966153E0,3.5197105E0,-1.8432004E0,1.1081446E1,2.876944E0,1.6514824E1,-4.02963E-1,-1.12220965E-1,-4.1429445E-1,1.6994219E0,-3.258488E-2,4.514732E-1,1.87791E0,-1.0123372E0],"categories":[],"categories_nodes":[],"categories_segments":[],"categories_sizes":[],"default_left":[0,0,0,0,0,0,0,0,0,0,0,0,0,0,0],"id":50,"left_children":[1,3,5,7,9,11,13,-1,-1,-1,-1,-1,-1,-1,-1],"loss_changes":[1.1711203E4,2.4741519E3,5.306648E3,2.0384868E3,1.4206815E3,3.2117139E3,1.9995967E3,0E0,0E0,0E0,0E0,0E0,0E0,0E0,0E0],"parents":[2147483647,0,0,1,1,2,2,3,3,4,4,5,5,6,6],"right_children":[2,4,6,8,10,12,14,-1,-1,-1,-1,-1,-1,-1,-1],"split_conditions":[4.5312864E-1,1.7720332E0,1.7275946E0,-9.801874E-1,-3.2699883E-1,1.0621336E-1,2.888564E0,-4.02963E-1,-1.12220965E-1,-4.1429445E-1,1.6994219E0,-3.258488E-2,4.514732E-1,1.87791E0,-1.0123372E0],"split_indices":[22,10,38,33,3,14,14,0,0,0,0,0,0,0,0],"split_type":[0,0,0,0,0,0,0,0,0,0,0,0,0,0,0],"sum_hessian":[1.949E3,1.309E3,6.4E2,1.295E3,1.4E1,6.11E2,2.9E1,3.2E2,9.75E2,4E0,1E1,2.07E2,4.04E2,2.7E1,2E0],"tree_param":{"num_deleted":"0","num_feature":"39","num_nodes":"15","size_leaf_vector":"1"}},{"base_weights":[1.655959E-2,-1.2991228E0,3.7143142E0,-1.2345835E0,-4.7053347E0,-7.7912254E0,4.4720335E0,-1.640035E-1,3.981882E-1,-3.9594676E0,-1.8337795E-1,4.0737057E-1,2.4909477E0],"categories":[],"categories_nodes":[],"categories_segments":[],"categories_sizes":[],"default_left":[0,0,0,0,0,0,0,0,0,0,0,0,0],"id":51,"left_children":[1,3,5,7,-1,9,11,-1,-1,-1,-1,-1,-1],"loss_changes":[9.491713E3,4.1912E3,4.498443E3,3.0479353E3,0E0,5.9903467E3,3.814252E3,0E0,0E0,0E0,0E0,0E0,0E0],"parents":[2147483647,0,0,1,1,2,2,3,3,5,5,6,6],"right_children":[2,4,6,8,-1,10,12,-1,-1,-1,-1,-1,-1],"split_conditions":[9.7662485E-1,1.1800791E0,-1.4374485E0,1.3019592E0,-4.7053347E0,1.4177437E-1,2.0563095E0,-1.640035E-1,3.981882E-1,-3.9594676E0,-1.8337795E-1,4.0737057E-1,2.4909477E0],"split_indices":[6,0,4,4,0,14,0,0,0,0,0,0,0],"split_type":[0,0,0,0,0,0,0,0,0,0,0,0,0],"sum_hessian":[1.949E3,1.438E3,5.11E2,1.437E3,1E0,3.1E1,4.8E2,1.334E3,1.03E2,4E0,2.7E1,4.72E2,8E0],"tree_param":{"num_deleted":"0","num_feature":"39","num_nodes":"13","size_leaf_vector":"1"}},{"base_weights":[1.1980826E-2,-1.588432E0,2.5471885E0,-2.868965E0,-5.2996135E-1,2.149067E0,1.1192479E1,-7.1789896E-1,-2.4634607E-1,-3.6493424E-2,-1.5778198E0,2.3615383E-1,-1.323628E0,1.5421265E0,-1.7977567E-1],"categories":[],"categories_nodes":[],"categories_segments":[],"categories_sizes":[],"default_left":[0,0,0,0,0,0,0,0,0,0,0,0,0,0,0],"id":52,"left_children":[1,3,5,7,9,11,13,-1,-1,-1,-1,-1,-1,-1,-1],"loss_changes":[7.915935E3,1.6195459E3,2.5745625E3,9.278384E2,1.6449823E3,2.3947031E3,1.8405098E3,0E0,0E0,0E0,0E0,0E0,0E0,0E0,0E0],"parents":[2147483647,0,0,1,1,2,2,3,3,4,4,5,5,6,6],"right_children":[2,4,6,8,10,12,14,-1,-1,-1,-1,-1,-1,-1,-1],"split_conditions":[-2.6412356E-1,-5.510266E-1,1.9604045E0,-9.6823645E-1,1.7353084E0,2.1724315E0,2.0423114E0,-7.1789896E-1,-2.4634607E-1,-3.6493424E-2,-1.5778198E0,2.3615383E-1,-1.323628E0,1.5421265E0,-1.7977567E-1],"split_indices":[10,25,2,9,20,9,11,0,0,0,0,0,0,0,0],"split_type":[0,0,0,0,0,0,0,0,0,0,0,0,0,0,0],"sum_hessian":[1.949E3,1.195E3,7.54E2,5.4E2,6.55E2,7.22E2,3.2E1,4.5E1,4.95E2,6.49E2,6E0,7.13E2,9E0,2.4E1,8E0],"tree_param":{"num_deleted":"0","num_feature":"39","num_nodes":"15","size_leaf_vector":"1"}},{"base_weights":[9.586464E-3,-1.3376555E0,2.7629054E0,-1.9238132E0,1.4974773E0,-1.7529261E0,4.4227686E0,-1.7854731E-1,-1.4156464E0,1.00669324E-1,1.4684159E0,-2.7124402E-1,1.1346588E0,3.8973692E-1,2.1219876E0],"categories":[],"categories_nodes":[],"categories_segments":[],"categories_sizes":[],"default_left":[0,0,0,0,0,0,0,0,0,0,0,0,0,0,0],"id":53,"left_children":[1,3,5,7,9,11,13,-1,-1,-1,-1,-1,-1,-1,-1],"loss_changes":[7.237E3,2.1798843E3,4.8124736E3,1.8125254E3,1.4413755E3,2.205243E3,4.0563145E3,0E0,0E0,0E0,0E0,0E0,0E0,0E0,0E0],"parents":[2147483647,0,0,1,1,2,2,3,3,4,4,5,5,6,6],"right_children":[2,4,6,8,10,12,14,-1,-1,-1,-1,-1,-1,-1,-1],"split_conditions":[4.5312864E-1,7.304397E-1,-4.13648E-1,1.8961524E0,1.6959975E0,1.840122E0,1.9272296E0,-1.7854731E-1,-1.4156464E0,1.00669324E-1,1.4684159E0,-2.7124402E-1,1.1346588E0,3.8973692E-1,2.1219876E0],"split_indices":[22,4,4,9,10,19,15,0,0,0,0,0,0,0,0],"split_type":[0,0,0,0,0,0,0,0,0,0,0,0,0,0,0],"sum_hessian":[1.949E3,1.309E3,6.4E2,1.085E3,2.24E2,1.72E2,4.68E2,1.074E3,1.1E1,2.17E2,7E0,1.61E2,1.1E1,4.55E2,1.3E1],"tree_param":{"num_deleted":"0","num_feature":"39","num_nodes":"15","size_leaf_vector":"1"}},{"base_weights":[1.0340514E-2,-8.721541E-1,3.5425553E0,-7.400453E-1,-1.6546339E1,3.0408683E0,1.5079437E1,-5.6052726E-2,-1.2123563E0,-2.3909523E0,1.5967449E0,2.4370363E-1,1.2618852E0,1.831564E0,-5.049316E-1],"categories":[],"categories_nodes":[],"categories_segments":[],"categories_sizes":[],"default_left":[0,0,0,0,0,0,0,0,0,0,0,0,0,0,0],"id":54,"left_children":[1,3,5,7,9,11,13,-1,-1,-1,-1,-1,-1,-1,-1],"loss_changes":[6.0815527E3,3.2201152E3,2.2114282E3,3.158658E3,3.4940396E3,2.1380571E3,1.1347324E3,0E0,0E0,0E0,0E0,0E0,0E0,0E0,0E0],"parents":[2147483647,0,0,1,1,2,2,3,3,4,4,5,5,6,6],"right_children":[2,4,6,8,10,12,14,-1,-1,-1,-1,-1,-1,-1,-1],"split_conditions":[1.1901945E0,1.2065709E0,2.5314915E0,2.888564E0,2.0096366E0,3.1842935E-1,1.982614E0,-5.6052726E-2,-1.2123563E0,-2.3909523E0,1.5967449E0,2.4370363E-1,1.2618852E0,1.831564E0,-5.049316E-1],"split_indices":[5,28,20,14,10,3,10,0,0,0,0,0,0,0,0],"split_type":[0,0,0,0,0,0,0,0,0,0,0,0,0,0,0],"sum_hessian":[1.949E3,1.56E3,3.89E2,1.548E3,1.2E1,3.74E2,1.5E1,1.525E3,2.3E1,1E1,2E0,3.53E2,2.1E1,1.3E1,2E0],"tree_param":{"num_deleted":"0","num_feature":"39","num_nodes":"15","size_leaf_vector":"1"}},{"base_weights":[9.703902E-3,-1.155635E0,2.3912704E0,-2.1181073E0,3.582787E-1,-1.9452792E0,3.7548716E0,-2.2735317E-1,9.250874E-1,-5.129524E-2,3.5681558E-1,4.6980187E-1,-3.1475225E-1,2.130854E-1,8.305775E-1],"categories":[],"categories_nodes":[],"categories_segments":[],"categories_sizes":[],"default_left":[0,0,0,0,0,0,0,0,0,0,0,0,0,0,0],"id":55,"left_children":[1,3,5,7,9,11,13,-1,-1,-1,-1,-1,-1,-1,-1],"loss_changes":[5.414661E3,1.9095596E3,3.7977458E3,1.4364124E3,1.428068E3,1.2447634E3,3.5889863E3,0E0,0E0,0E0,0E0,0E0,0E0,0E0,0E0],"parents":[2147483647,0,0,1,1,2,2,3,3,4,4,5,5,6,6],"right_children":[2,4,6,8,10,12,14,-1,-1,-1,-1,-1,-1,-1,-1],"split_conditions":[4.5312864E-1,1.7813176E-1,-5.198245E-1,3.2857015E0,-4.6623334E-1,-4.9592412E-1,1.465125E0,-2.2735317E-1,9.250874E-1,-5.129524E-2,3.5681558E-1,4.6980187E-1,-3.1475225E-1,2.130854E-1,8.305775E-1],"split_indices":[22,4,4,16,29,3,31,0,0,0,0,0,0,0,0],"split_type":[0,0,0,0,0,0,0,0,0,0,0,0,0,0,0],"sum_hessian":[1.949E3,1.309E3,6.4E2,8E2,5.09E2,1.53E2,4.87E2,7.9E2,1E1,4.01E2,1.08E2,2.3E1,1.3E2,3.6E2,1.27E2],"tree_param":{"num_deleted":"0","num_feature":"39","num_nodes":"15","size_leaf_vector":"1"}},{"base_weights":[9.850167E-3,-1.0393085E0,2.1539812E0,-1.48792E0,1.6293768E0,1.4526361E0,9.907534E0,-1.3621591E-1,-1.3007305E0,1.2303888E-1,1.3593445E0,1.1219096E-1,1.7261575E0,1.3328333E0,-8.2972956E-1],"categories":[],"categories_nodes":[],"categories_segments":[],"categories_sizes":[],"default_left":[0,0,0,0,0,0,0,0,0,0,0,0,0,0,0],"id":56,"left_children":[1,3,5,7,9,11,13,-1,-1,-1,-1,-1,-1,-1,-1],"loss_changes":[4.3888296E3,1.5707605E3,3.4713127E3,1.6077119E3,8.8546985E2,3.0601826E3,3.411167E3,0E0,0E0,0E0,0E0,0E0,0E0,0E0,0E0],"parents":[2147483647,0,0,1,1,2,2,3,3,4,4,5,5,6,6],"right_children":[2,4,6,8,10,12,14,-1,-1,-1,-1,-1,-1,-1,-1],"split_conditions":[4.5312864E-1,8.519625E-1,1.2258824E0,1.8961524E0,1.6959975E0,2.0515146E0,1.0760593E0,-1.3621591E-1,-1.3007305E0,1.2303888E-1,1.3593445E0,1.1219096E-1,1.7261575E0,1.3328333E0,-8.2972956E-1],"split_indices":[22,4,4,9,10,6,3,0,0,0,0,0,0,0,0],"split_type":[0,0,0,0,0,0,0,0,0,0,0,0,0,0,0],"sum_hessian":[1.949E3,1.309E3,6.4E2,1.121E3,1.88E2,5.88E2,5.2E1,1.11E3,1.1E1,1.83E2,5E0,5.77E2,1.1E1,4.4E1,8E0],"tree_param":{"num_deleted":"0","num_feature":"39","num_nodes":"15","size_leaf_vector":"1"}},{"base_weights":[1.0098157E-2,-1.0102751E0,2.0954008E0,-7.2366805E0,-8.286525E-1,2.863779E0,-5.9825463E0,-1.082962E0,-6.03734E-1,-8.87491E-2,1.4282056E0,1.1488E0,2.4589777E-1,-9.5887977E-1,4.513794E-1],"categories":[],"categories_nodes":[],"categories_segments":[],"categories_sizes":[],"default_left":[0,0,0,0,0,0,0,0,0,0,0,0,0,0,0],"id":57,"left_children":[1,3,5,7,9,11,13,-1,-1,-1,-1,-1,-1,-1,-1],"loss_changes":[4.151302E3,1.475425E3,3.9957676E3,9.405664E1,1.1453774E3,2.0175332E3,2.1630186E3,0E0,0E0,0E0,0E0,0E0,0E0,0E0,0E0],"parents":[2147483647,0,0,1,1,2,2,3,3,4,4,5,5,6,6],"right_children":[2,4,6,8,10,12,14,-1,-1,-1,-1,-1,-1,-1,-1],"split_conditions":[1.0621336E-1,-1.0829641E0,2.6612904E0,-1.100501E0,2.1264412E0,-1.5497428E0,1.7904514E0,-1.082962E0,-6.03734E-1,-8.87491E-2,1.4282056E0,1.1488E0,2.4589777E-1,-9.5887977E-1,4.513794E-1],"split_indices":[14,0,14,0,8,26,8,0,0,0,0,0,0,0,0],"split_type":[0,0,0,0,0,0,0,0,0,0,0,0,0,0,0],"sum_hessian":[1.949E3,1.309E3,6.4E2,3.6E1,1.273E3,5.85E2,5.5E1,7E0,2.9E1,1.269E3,4E0,2.5E1,5.6E2,4.1E1,1.4E1],"tree_param":{"num_deleted":"0","num_feature":"39","num_nodes":"15","size_leaf_vector":"1"}},{"base_weights":[9.371291E-3,-4.734361E-1,3.4843278E0,-3.5925713E-1,-1.0120722E1,4.212945E0,-1.3549438E1,-4.9440656E-2,9.065491E-1,2.4548166E-1,-1.5685582E0,5.563822E-1,-3.979045E-1,-1.7304871E0,-6.333032E-1],"categories":[],"categories_nodes":[],"categories_segments":[],"categories_sizes":[],"default_left":[0,0,0,0,0,0,0,0,0,0,0,0,0,0,0],"id":58,"left_children":[1,3,5,7,9,11,13,-1,-1,-1,-1,-1,-1,-1,-1],"loss_changes":[3.2732324E3,1.8832625E3,3.010924E3,2.1622134E3,1.4381274E3,2.5563372E3,1.6141504E2,0E0,0E0,0E0,0E0,0E0,0E0,0E0,0E0],"parents":[2147483647,0,0,1,1,2,2,3,3,4,4,5,5,6,6],"right_children":[2,4,6,8,10,12,14,-1,-1,-1,-1,-1,-1,-1,-1],"split_conditions":[1.4647593E0,1.4600353E0,1.9027885E0,1.7429565E0,-8.811956E-1,1.8595668E0,1.9767952E0,-4.9440656E-2,9.065491E-1,2.4548166E-1,-1.5685582E0,5.563822E-1,-3.979045E-1,-1.7304871E0,-6.333032E-1],"split_indices":[8,37,17,21,23,21,13,0,0,0,0,0,0,0,0],"split_type":[0,0,0,0,0,0,0,0,0,0,0,0,0,0,0],"sum_hessian":[1.949E3,1.712E3,2.37E2,1.693E3,1.9E1,2.28E2,9E0,1.67E3,2.3E1,6E0,1.3E1,1.96E2,3.2E1,5E0,4E0],"tree_param":{"num_deleted":"0","num_feature":"39","num_nodes":"15","size_leaf_vector":"1"}},{"base_weights":[7.062597E-3,-3.1193442E0,5.88627E-1,-3.7472432E0,1.1320782E1,-4.0003678E-1,2.6013505E0,-3.9627227E-1,1.2865692E0,1.7314892E0,-6.49469E-1,-3.222168E-2,-4.311774E0,-1.7249364E-1,3.7195474E-1],"categories":[],"categories_nodes":[],"categories_segments":[],"categories_sizes":[],"default_left":[0,0,0,0,0,0,0,0,0,0,0,0,0,0,0],"id":59,"left_children":[1,3,5,7,9,11,13,-1,-1,-1,-1,-1,-1,-1,-1],"loss_changes":[3.5473398E3,2.8169055E3,3.2744375E3,1.1034277E3,1.5006976E3,3.6561238E3,2.628417E3,0E0,0E0,0E0,0E0,0E0,0E0,0E0,0E0],"parents":[2147483647,0,0,1,1,2,2,3,3,4,4,5,5,6,6],"right_children":[2,4,6,8,10,12,14,-1,-1,-1,-1,-1,-1,-1,-1],"split_conditions":[-7.762638E-1,1.8662221E0,4.5312864E-1,2.0676188E0,4.1822267E0,1.8706154E0,-2.1460675E-1,-3.9627227E-1,1.2865692E0,1.7314892E0,-6.49469E-1,-3.222168E-2,-4.311774E0,-1.7249364E-1,3.7195474E-1],"split_indices":[4,19,22,7,12,30,12,0,0,0,0,0,0,0,0],"split_type":[0,0,0,0,0,0,0,0,0,0,0,0,0,0,0],"sum_hessian":[1.949E3,3.05E2,1.644E3,2.93E2,1.2E1,1.103E3,5.41E2,2.9E2,3E0,9E0,3E0,1.102E3,1E0,1.11E2,4.3E2],"tree_param":{"num_deleted":"0","num_feature":"39","num_nodes":"15","size_leaf_vector":"1"}},{"base_weights":[5.245925E-3,-3.6588585E-1,4.5597796E0,-5.511479E-1,6.888048E0,3.720711E0,2.3657776E1,-4.243609E-2,-1.103011E0,-2.2835286E-1,1.1103712E0,4.4592333E-1,-1.7406641E0,-8.556519E-2,2.8731592E0],"categories":[],"categories_nodes":[],"categories_segments":[],"categories_sizes":[],"default_left":[0,0,0,0,0,0,0,0,0,0,0,0,0,0,0],"id":60,"left_children":[1,3,5,7,9,11,13,-1,-1,-1,-1,-1,-1,-1,-1],"loss_changes":[3.297816E3,2.4281528E3,2.2675823E3,2.3336487E3,1.7652485E3,2.2932485E3,7.7084424E2,0E0,0E0,0E0,0E0,0E0,0E0,0E0,0E0],"parents":[2147483647,0,0,1,1,2,2,3,3,4,4,5,5,6,6],"right_children":[2,4,6,8,10,12,14,-1,-1,-1,-1,-1,-1,-1,-1],"split_conditions":[1.2258824E0,1.8657266E0,1.7035092E0,1.7480055E0,-5.4054433E-1,1.7049257E0,1.6617899E0,-4.243609E-2,-1.103011E0,-2.2835286E-1,1.1103712E0,4.4592333E-1,-1.7406641E0,-8.556519E-2,2.8731592E0],"split_indices":[4,1,6,1,23,36,1,0,0,0,0,0,0,0,0],"split_type":[0,0,0,0,0,0,0,0,0,0,0,0,0,0,0],"sum_hessian":[1.949E3,1.803E3,1.46E2,1.759E3,4.4E1,1.41E2,5E0,1.739E3,2E1,1.4E1,3E1,1.37E2,4E0,1E0,4E0],"tree_param":{"num_deleted":"0","num_feature":"39","num_nodes":"15","size_leaf_vector":"1"}},{"base_weights":[5.365585E-3,-1.3182614E0,1.0336428E0,-1.2051668E0,-1.7082575E1,1.1590154E0,-1.2722803E1,-5.21769E-1,-9.257035E-2,7.458588E-1,-2.3482525E0,1.4133054E-1,-5.9112996E-1,-2.1391602E0,5.628296E-1],"categories":[],"categories_nodes":[],"categories_segments":[],"categories_sizes":[],"default_left":[0,0,0,0,0,0,0,0,0,0,0,0,0,0,0],"id":61,"left_children":[1,3,5,7,9,11,13,-1,-1,-1,-1,-1,-1,-1,-1],"loss_changes":[2.6554207E3,1.50019E3,1.9084467E3,9.460774E2,1.1175199E3,1.9662783E3,1.7112181E3,0E0,0E0,0E0,0E0,0E0,0E0,0E0,0E0],"parents":[2147483647,0,0,1,1,2,2,3,3,4,4,5,5,6,6],"right_children":[2,4,6,8,10,12,14,-1,-1,-1,-1,-1,-1,-1,-1],"split_conditions":[-5.265736E-1,1.839879E0,2.1724315E0,-1.0702503E0,-9.1106683E-1,3.0864053E0,-2.330902E-1,-5.21769E-1,-9.257035E-2,7.458588E-1,-2.3482525E0,1.4133054E-1,-5.9112996E-1,-2.1391602E0,5.628296E-1],"split_indices":[9,12,9,11,2,14,3,0,0,0,0,0,0,0,0],"split_type":[0,0,0,0,0,0,0,0,0,0,0,0,0,0,0],"sum_hessian":[1.949E3,8.52E2,1.097E3,8.47E2,5E0,1.088E3,9E0,5.4E1,7.93E2,1E0,4E0,1.051E3,3.7E1,6E0,3E0],"tree_param":{"num_deleted":"0","num_feature":"39","num_nodes":"15","size_leaf_vector":"1"}},{"base_weights":[2.6381898E-3,-2.6917622E0,5.1750064E-1,-3.4314797E0,7.248657E0,4.3005142E-1,1.8281525E1,-2.6306152E-1,-9.637337E-1,-2.7817017E-1,1.4406729E0,5.1748045E-2,-1.9927403E0,-5.554199E-3,2.090904E0],"categories":[],"categories_nodes":[],"categories_segments":[],"categories_sizes":[],"default_left":[0,0,0,0,0,0,0,0,0,0,0,0,0,0,0],"id":62,"left_children":[1,3,5,7,9,11,13,-1,-1,-1,-1,-1,-1,-1,-1],"loss_changes":[2.706522E3,2.3263943E3,2.5366895E3,1.4259023E3,1.619632E3,2.9132183E3,3.866089E2,0E0,0E0,0E0,0E0,0E0,0E0,0E0,0E0],"parents":[2147483647,0,0,1,1,2,2,3,3,4,4,5,5,6,6],"right_children":[2,4,6,8,10,12,14,-1,-1,-1,-1,-1,-1,-1,-1],"split_conditions":[-7.6710165E-1,1.8336481E0,2.0563095E0,1.5716602E0,1.7465059E0,1.9848659E0,-6.072855E-1,-2.6306152E-1,-9.637337E-1,-2.7817017E-1,1.4406729E0,5.1748045E-2,-1.9927403E0,-5.554199E-3,2.090904E0],"split_indices":[4,19,0,9,9,29,4,0,0,0,0,0,0,0,0],"split_type":[0,0,0,0,0,0,0,0,0,0,0,0,0,0,0],"sum_hessian":[1.949E3,3.12E2,1.637E3,2.91E2,2.1E1,1.63E3,7E0,2.59E2,3.2E1,9E0,1.2E1,1.624E3,6E0,1E0,6E0],"tree_param":{"num_deleted":"0","num_feature":"39","num_nodes":"15","size_leaf_vector":"1"}},{"base_weights":[2.4076335E-3,-3.268138E-1,4.0426326E0,-8.1348383E-1,2.067717E0,1.6601111E0,1.0374374E1,-6.447986E-2,-9.347664E-1,1.8353325E0,1.5672517E-1,3.9039013E-1,-2.751051E-1,2.9676514E0,6.095276E-1],"categories":[],"categories_nodes":[],"categories_segments":[],"categories_sizes":[],"default_left":[0,0,0,0,0,0,0,0,0,0,0,0,0,0,0],"id":63,"left_children":[1,3,5,7,9,11,13,-1,-1,-1,-1,-1,-1,-1,-1],"loss_changes":[2.5950718E3,2.103967E3,2.2003477E3,2.153358E3,2.4571025E3,1.0796936E3,3.1229438E3,0E0,0E0,0E0,0E0,0E0,0E0,0E0,0E0],"parents":[2147483647,0,0,1,1,2,2,3,3,4,4,5,5,6,6],"right_children":[2,4,6,8,10,12,14,-1,-1,-1,-1,-1,-1,-1,-1],"split_conditions":[1.2258824E0,1.2873908E0,7.29377E-1,2.888564E0,1.2622849E0,-3.8481516E-1,-5.008593E-2,-6.447986E-2,-9.347664E-1,1.8353325E0,1.5672517E-1,3.9039013E-1,-2.751051E-1,2.9676514E0,6.095276E-1],"split_indices":[4,11,1,14,2,32,18,0,0,0,0,0,0,0,0],"split_type":[0,0,0,0,0,0,0,0,0,0,0,0,0,0,0],"sum_hessian":[1.949E3,1.803E3,1.46E2,1.499E3,3.04E2,1.07E2,3.9E1,1.471E3,2.8E1,8E0,2.96E2,7.1E1,3.6E1,6E0,3.3E1],"tree_param":{"num_deleted":"0","num_feature":"39","num_nodes":"15","size_leaf_vector":"1"}},{"base_weights":[4.5580897E-3,-1.6765108E0,6.4956075E-1,-5.4467044E0,-1.315146E0,8.500079E-1,-6.0641503E0,-7.296161E-1,-3.0134055E-1,-1.2186936E-1,-1.0523738E0,9.375932E-2,-1.1155347E0,-9.4337505E-1,1.9191238E-1],"categories":[],"categories_nodes":[],"categories_segments":[],"categories_sizes":[],"default_left":[0,0,0,0,0,0,0,0,0,0,0,0,0,0,0],"id":64,"left_children":[1,3,5,7,9,11,13,-1,-1,-1,-1,-1,-1,-1,-1],"loss_changes":[2.1154624E3,7.2990356E2,1.9026538E3,1.8952686E2,4.2682892E2,1.4510033E3,1.1210228E3,0E0,0E0,0E0,0E0,0E0,0E0,0E0,0E0],"parents":[2147483647,0,0,1,1,2,2,3,3,4,4,5,5,6,6],"right_children":[2,4,6,8,10,12,14,-1,-1,-1,-1,-1,-1,-1,-1],"split_conditions":[-5.510266E-1,-1.0784932E0,3.1649756E0,-8.3974135E-1,-8.188727E-1,2.1724315E0,1.2528921E0,-7.296161E-1,-3.0134055E-1,-1.2186936E-1,-1.0523738E0,9.375932E-2,-1.1155347E0,-9.4337505E-1,1.9191238E-1],"split_indices":[25,0,12,10,21,9,18,0,0,0,0,0,0,0,0],"split_type":[0,0,0,0,0,0,0,0,0,0,0,0,0,0,0],"sum_hessian":[1.949E3,5.4E2,1.409E3,4.6E1,4.94E2,1.369E3,4E1,2.5E1,2.1E1,4.9E2,4E0,1.36E3,9E0,2.8E1,1.2E1],"tree_param":{"num_deleted":"0","num_feature":"39","num_nodes":"15","size_leaf_vector":"1"}},{"base_weights":[2.0648818E-3,-7.3661005E-1,1.5116781E0,-1.8035215E0,5.2502686E-1,1.9858643E0,-5.4760675E0,-1.4780544E-1,-1.5828278E0,3.750002E-2,1.8333203E0,2.1582942E-1,-1.2954382E0,-7.311004E-1,6.446228E-1],"categories":[],"categories_nodes":[],"categories_segments":[],"categories_sizes":[],"default_left":[0,0,0,0,0,0,0,0,0,0,0,0,0,0,0],"id":65,"left_children":[1,3,5,7,9,11,13,-1,-1,-1,-1,-1,-1,-1,-1],"loss_changes":[2.1755845E3,1.7642788E3,2.1348232E3,3.2174685E3,1.5988173E3,1.5762236E3,9.4407104E2,0E0,0E0,0E0,0E0,0E0,0E0,0E0,0E0],"parents":[2147483647,0,0,1,1,2,2,3,3,4,4,5,5,6,6],"right_children":[2,4,6,8,10,12,14,-1,-1,-1,-1,-1,-1,-1,-1],"split_conditions":[1.0621336E-1,4.030744E-2,3.1649756E0,1.5811946E0,1.6787025E0,1.9027885E0,2.0274997E0,-1.4780544E-1,-1.5828278E0,3.750002E-2,1.8333203E0,2.1582942E-1,-1.2954382E0,-7.311004E-1,6.446228E-1],"split_indices":[14,4,12,9,0,17,7,0,0,0,0,0,0,0,0],"split_type":[0,0,0,0,0,0,0,0,0,0,0,0,0,0,0],"sum_hessian":[1.949E3,1.309E3,6.4E2,7.09E2,6E2,6E2,4E1,6.94E2,1.5E1,5.96E2,4E0,5.94E2,6E0,3.5E1,5E0],"tree_param":{"num_deleted":"0","num_feature":"39","num_nodes":"15","size_leaf_vector":"1"}},{"base_weights":[1.3402224E-3,-6.628336E-1,1.358698E0,-4.1536224E-1,-4.5662866E0,4.771609E0,4.3870875E-1,-5.342239E-1,-2.6272247E-2,-2.8067225E-1,-1.9611634E0,5.598509E-1,-1.8012867E0,-2.8490764E-1,1.8189023E-1],"categories":[],"categories_nodes":[],"categories_segments":[],"categories_sizes":[],"default_left":[0,0,0,0,0,0,0,0,0,0,0,0,0,0,0],"id":66,"left_children":[1,3,5,7,9,11,13,-1,-1,-1,-1,-1,-1,-1,-1],"loss_changes":[1.7588673E3,1.263554E3,2.0105448E3,9.2585834E2,2.0098693E3,2.6631504E3,2.3012986E3,0E0,0E0,0E0,0E0,0E0,0E0,0E0,0E0],"parents":[2147483647,0,0,1,1,2,2,3,3,4,4,5,5,6,6],"right_children":[2,4,6,8,10,12,14,-1,-1,-1,-1,-1,-1,-1,-1],"split_conditions":[1.0621336E-1,7.8492805E-2,-4.6814072E-1,-1.0829641E0,1.5716602E0,2.1724315E0,2.2573669E-1,-5.342239E-1,-2.6272247E-2,-2.8067225E-1,-1.9611634E0,5.598509E-1,-1.8012867E0,-2.8490764E-1,1.8189023E-1],"split_indices":[14,12,3,0,9,9,20,0,0,0,0,0,0,0,0],"split_type":[0,0,0,0,0,0,0,0,0,0,0,0,0,0,0],"sum_hessian":[1.949E3,1.309E3,6.4E2,1.232E3,7.7E1,1.35E2,5.05E2,3.6E1,1.196E3,7E1,7E0,1.31E2,4E0,1.49E2,3.56E2],"tree_param":{"num_deleted":"0","num_feature":"39","num_nodes":"15","size_leaf_vector":"1"}},{"base_weights":[-9.244948E-4,-3.247942E-1,2.3301249E0,4.178812E-4,-4.3861074E0,2.9055667E0,-1.1080505E1,-3.5479825E-2,5.8439136E-1,-4.0131183E0,-3.4931368E-1,5.281671E-1,-9.6162E-2,-2.0520387E0,-4.1033587E-1],"categories":[],"categories_nodes":[],"categories_segments":[],"categories_sizes":[],"default_left":[0,0,0,0,0,0,0,0,0,0,0,0,0,0,0],"id":67,"left_children":[1,3,5,7,9,11,13,-1,-1,-1,-1,-1,-1,-1,-1],"loss_changes":[1.4729215E3,2.262512E3,1.86885E3,3.2962156E3,3.9135684E3,2.1093232E3,5.744319E2,0E0,0E0,0E0,0E0,0E0,0E0,0E0,0E0],"parents":[2147483647,0,0,1,1,2,2,3,3,4,4,5,5,6,6],"right_children":[2,4,6,8,10,12,14,-1,-1,-1,-1,-1,-1,-1,-1],"split_conditions":[1.4647593E0,1.3058599E0,1.9027885E0,1.1736418E0,1.1523228E0,6.789424E-1,1.7172344E0,-3.5479825E-2,5.8439136E-1,-4.0131183E0,-3.4931368E-1,5.281671E-1,-9.6162E-2,-2.0520387E0,-4.1033587E-1],"split_indices":[8,17,17,13,35,20,9,0,0,0,0,0,0,0,0],"split_type":[0,0,0,0,0,0,0,0,0,0,0,0,0,0,0],"sum_hessian":[1.949E3,1.712E3,2.37E2,1.586E3,1.26E2,2.28E2,9E0,1.496E3,9E1,2E0,1.24E2,1.41E2,8.7E1,3E0,6E0],"tree_param":{"num_deleted":"0","num_feature":"39","num_nodes":"15","size_leaf_vector":"1"}},{"base_weights":[-3.8215676E-3,-1.7916517E0,3.8838607E-1,-1.4792671E0,-1.0493245E1,2.5957358E-1,7.1209207E0,-9.761453E-2,-5.978653E-1,-4.1510138E-1,-1.614364E0,4.3525316E-2,-4.9849015E-1,1.8798004E-1,1.6002874E0],"categories":[],"categories_nodes":[],"categories_segments":[],"categories_sizes":[],"default_left":[0,0,0,0,0,0,0,0,0,0,0,0,0,0,0],"id":68,"left_children":[1,3,5,7,9,11,13,-1,-1,-1,-1,-1,-1,-1,-1],"loss_changes":[1.3680371E3,9.3858154E2,1.385727E3,7.6383527E2,3.6302112E2,1.4496063E3,1.3664597E3,0E0,0E0,0E0,0E0,0E0,0E0,0E0,0E0],"parents":[2147483647,0,0,1,1,2,2,3,3,4,4,5,5,6,6],"right_children":[2,4,6,8,10,12,14,-1,-1,-1,-1,-1,-1,-1,-1],"split_conditions":[-9.496182E-1,2.2501247E0,2.2501247E0,-4.7358564E-1,-1.0360112E0,2.6612904E0,-3.9542785E-1,-9.761453E-2,-5.978653E-1,-4.1510138E-1,-1.614364E0,4.3525316E-2,-4.9849015E-1,1.8798004E-1,1.6002874E0],"split_indices":[7,3,3,16,11,14,11,0,0,0,0,0,0,0,0],"split_type":[0,0,0,0,0,0,0,0,0,0,0,0,0,0,0],"sum_hessian":[1.949E3,3.5E2,1.599E3,3.39E2,1.1E1,1.57E3,2.9E1,3.06E2,3.3E1,6E0,5E0,1.52E3,5E1,1.9E1,1E1],"tree_param":{"num_deleted":"0","num_feature":"39","num_nodes":"15","size_leaf_vector":"1"}},{"base_weights":[-4.165149E-3,-2.9196915E-1,3.5278254E0,-2.2670052E0,1.1140176E-1,1.3970801E0,9.192642E0,-2.910487E-1,6.1720526E-1,-4.4071414E-3,9.668361E-1,8.070914E-1,1.4868595E-2,1.1687626E0,-1.6184113E0],"categories":[],"categories_nodes":[],"categories_segments":[],"categories_sizes":[],"default_left":[0,0,0,0,0,0,0,0,0,0,0,0,0,0,0],"id":69,"left_children":[1,3,5,7,9,11,13,-1,-1,-1,-1,-1,-1,-1,-1],"loss_changes":[1.9832461E3,1.4374491E3,1.7614885E3,1.6796598E3,2.2277163E3,8.9861017E2,2.721737E3,0E0,0E0,0E0,0E0,0E0,0E0,0E0,0E0],"parents":[2147483647,0,0,1,1,2,2,3,3,4,4,5,5,6,6],"right_children":[2,4,6,8,10,12,14,-1,-1,-1,-1,-1,-1,-1,-1],"split_conditions":[1.2258824E0,-7.762638E-1,-1.4265135E-1,1.8336481E0,2.2822535E0,-1.3514119E0,1.8130394E0,-2.910487E-1,6.1720526E-1,-4.4071414E-3,9.668361E-1,8.070914E-1,1.4868595E-2,1.1687626E0,-1.6184113E0],"split_indices":[4,4,10,31,10,26,1,0,0,0,0,0,0,0,0],"split_type":[0,0,0,0,0,0,0,0,0,0,0,0,0,0,0],"sum_hessian":[1.949E3,1.803E3,1.46E2,3.05E2,1.498E3,1.07E2,3.9E1,2.84E2,2.1E1,1.475E3,2.3E1,1.6E1,9.1E1,3.6E1,3E0],"tree_param":{"num_deleted":"0","num_feature":"39","num_nodes":"15","size_leaf_vector":"1"}},{"base_weights":[-2.9077148E-3,-3.6599237E-1,2.2673945E0,-2.4621446E-1,-6.1644564E0,7.261078E-1,5.3247747E0,-1.0505468E-1,5.6625526E-2,-1.5632794E0,-1.56795E-1,1.3953388E-1,-1.3836777E0,2.5166342E0,4.587849E-1],"categories":[],"categories_nodes":[],"categories_segments":[],"categories_sizes":[],"default_left":[0,0,0,0,0,0,0,0,0,0,0,0,0,0,0],"id":70,"left_children":[1,3,5,7,9,11,13,-1,-1,-1,-1,-1,-1,-1,-1],"loss_changes":[1.6082382E3,1.1666782E3,1.2637423E3,1.0782091E3,1.4552119E3,1.7735752E3,1.2004993E3,0E0,0E0,0E0,0E0,0E0,0E0,0E0,0E0],"parents":[2147483647,0,0,1,1,2,2,3,3,4,4,5,5,6,6],"right_children":[2,4,6,8,10,12,14,-1,-1,-1,-1,-1,-1,-1,-1],"split_conditions":[8.8238525E-1,3.0864053E0,6.877398E-1,-4.0803495E-1,5.9496E-1,3.91901E-1,7.158505E-1,-1.0505468E-1,5.6625526E-2,-1.5632794E0,-1.56795E-1,1.3953388E-1,-1.3836777E0,2.5166342E0,4.587849E-1],"split_indices":[4,14,2,20,23,2,33,0,0,0,0,0,0,0,0],"split_type":[0,0,0,0,0,0,0,0,0,0,0,0,0,0,0],"sum_hessian":[1.949E3,1.681E3,2.68E2,1.648E3,3.3E1,1.79E2,8.9E1,8.28E2,8.2E2,1E1,2.3E1,1.72E2,7E0,2E0,8.7E1],"tree_param":{"num_deleted":"0","num_feature":"39","num_nodes":"15","size_leaf_vector":"1"}},{"base_weights":[-2.6460462E-3,-1.9856068E0,3.662224E-1,-2.7561443E0,4.69825E0,5.0086987E-1,-1.0598926E1,-1.8801157E-1,-1.2272626E0,-5.56307E-1,1.0338135E0,1.610395E-2,4.0512022E-1,-2.3665237E0,-1.7428167E-1],"categories":[],"categories_nodes":[],"categories_segments":[],"categories_sizes":[],"default_left":[0,0,0,0,0,0,0,0,0,0,0,0,0,0,0],"id":71,"left_children":[1,3,5,7,9,11,13,-1,-1,-1,-1,-1,-1,-1,-1],"loss_changes":[1.4270579E3,1.5888987E3,2.4340347E3,2.2695212E3,1.9094369E3,1.9611342E3,2.2730894E3,0E0,0E0,0E0,0E0,0E0,0E0,0E0,0E0],"parents":[2147483647,0,0,1,1,2,2,3,3,4,4,5,5,6,6],"right_children":[2,4,6,8,10,12,14,-1,-1,-1,-1,-1,-1,-1,-1],"split_conditions":[-7.762638E-1,1.7465059E0,1.8595668E0,1.5716602E0,1.3548269E0,1.465125E0,1.2229838E0,-1.8801157E-1,-1.2272626E0,-5.56307E-1,1.0338135E0,1.610395E-2,4.0512022E-1,-2.3665237E0,-1.7428167E-1],"split_indices":[4,9,21,9,35,31,16,0,0,0,0,0,0,0,0],"split_type":[0,0,0,0,0,0,0,0,0,0,0,0,0,0,0],"sum_hessian":[1.949E3,3.05E2,1.644E3,2.74E2,3.1E1,1.625E3,1.9E1,2.52E2,2.2E1,1.1E1,2E1,1.484E3,1.41E2,7E0,1.2E1],"tree_param":{"num_deleted":"0","num_feature":"39","num_nodes":"15","size_leaf_vector":"1"}},{"base_weights":[-3.959601E-3,-2.4106622E-1,2.9058654E0,-1.8696158E-1,-1.1011163E1,2.2245286E0,1.854653E1,-3.7017506E-2,4.205124E-1,-1.6303686E0,-3.5164064E-1,2.8819892E-1,-1.6366284E0,2.2946339E0,-1.7262574E-1],"categories":[],"categories_nodes":[],"categories_segments":[],"categories_sizes":[],"default_left":[0,0,0,0,0,0,0,0,0,0,0,0,0,0,0],"id":72,"left_children":[1,3,5,7,9,11,13,-1,-1,-1,-1,-1,-1,-1,-1],"loss_changes":[1.3460812E3,1.0491543E3,1.5252574E3,1.4467782E3,2.9966528E2,1.7827942E3,5.7478955E2,0E0,0E0,0E0,0E0,0E0,0E0,0E0,0E0],"parents":[2147483647,0,0,1,1,2,2,3,3,4,4,5,5,6,6],"right_children":[2,4,6,8,10,12,14,-1,-1,-1,-1,-1,-1,-1,-1],"split_conditions":[1.2258824E0,1.9027885E0,1.7035092E0,1.7405261E0,1.9767952E0,1.7075061E0,1.7618835E0,-3.7017506E-2,4.205124E-1,-1.6303686E0,-3.5164064E-1,2.8819892E-1,-1.6366284E0,2.2946339E0,-1.7262574E-1],"split_indices":[4,17,6,15,13,17,4,0,0,0,0,0,0,0,0],"split_type":[0,0,0,0,0,0,0,0,0,0,0,0,0,0,0],"sum_hessian":[1.949E3,1.803E3,1.46E2,1.795E3,8E0,1.41E2,5E0,1.724E3,7.1E1,4E0,4E0,1.37E2,4E0,4E0,1E0],"tree_param":{"num_deleted":"0","num_feature":"39","num_nodes":"15","size_leaf_vector":"1"}},{"base_weights":[-4.0052054E-3,-1.7693403E0,3.2438174E-1,-2.3241413E0,5.49828E0,3.807099E-1,-1.5126038E1,-1.8980679E-1,-1.2764693E0,1.3907017E0,-2.667918E-1,4.322802E-2,-1.6569239E0,6.3518065E-1,-3.872115E0],"categories":[],"categories_nodes":[],"categories_segments":[],"categories_sizes":[],"default_left":[0,0,0,0,0,0,0,0,0,0,0,0,0,0,0],"id":73,"left_children":[1,3,5,7,9,11,13,-1,-1,-1,-1,-1,-1,-1,-1],"loss_changes":[1.1310144E3,1.2465962E3,1.4373911E3,1.2435779E3,1.5477856E3,1.4407096E3,3.286582E3,0E0,0E0,0E0,0E0,0E0,0E0,0E0,0E0],"parents":[2147483647,0,0,1,1,2,2,3,3,4,4,5,5,6,6],"right_children":[2,4,6,8,10,12,14,-1,-1,-1,-1,-1,-1,-1,-1],"split_conditions":[-7.762638E-1,1.8336481E0,1.9182723E0,1.6617899E0,-9.570715E-2,2.1724315E0,-6.164286E-1,-1.8980679E-1,-1.2764693E0,1.3907017E0,-2.667918E-1,4.322802E-2,-1.6569239E0,6.3518065E-1,-3.872115E0],"split_indices":[4,19,19,1,3,9,4,0,0,0,0,0,0,0,0],"split_type":[0,0,0,0,0,0,0,0,0,0,0,0,0,0,0],"sum_hessian":[1.949E3,3.05E2,1.644E3,2.84E2,2.1E1,1.639E3,5E0,2.74E2,1E1,1E1,1.1E1,1.635E3,4E0,3E0,2E0],"tree_param":{"num_deleted":"0","num_feature":"39","num_nodes":"15","size_leaf_vector":"1"}},{"base_weights":[-6.252989E-3,-2.1679726E-1,2.577612E0,-2.9180008E-1,7.24136E0,1.9496615E0,1.70095E1,-4.3817773E-2,3.6558077E-1,-1.0192261E-1,1.2590754E0,2.5529698E-1,-1.5091578E0,5.381104E-1,2.6844199E0],"categories":[],"categories_nodes":[],"categories_segments":[],"categories_sizes":[],"default_left":[0,0,0,0,0,0,0,0,0,0,0,0,0,0,0],"id":74,"left_children":[1,3,5,7,9,11,13,-1,-1,-1,-1,-1,-1,-1,-1],"loss_changes":[1.0613938E3,1.0112396E3,1.2990261E3,1.0342048E3,8.082372E2,1.4984473E3,5.417195E2,0E0,0E0,0E0,0E0,0E0,0E0,0E0,0E0],"parents":[2147483647,0,0,1,1,2,2,3,3,4,4,5,5,6,6],"right_children":[2,4,6,8,10,12,14,-1,-1,-1,-1,-1,-1,-1,-1],"split_conditions":[1.2258824E0,2.020488E0,1.7035092E0,2.0560064E0,-1.5250401E-2,1.680214E0,1.7553747E0,-4.3817773E-2,3.6558077E-1,-1.0192261E-1,1.2590754E0,2.5529698E-1,-1.5091578E0,5.381104E-1,2.6844199E0],"split_indices":[4,1,6,10,4,37,0,0,0,0,0,0,0,0,0],"split_type":[0,0,0,0,0,0,0,0,0,0,0,0,0,0,0],"sum_hessian":[1.949E3,1.803E3,1.46E2,1.786E3,1.7E1,1.41E2,5E0,1.723E3,6.3E1,7E0,1E1,1.37E2,4E0,3E0,2E0],"tree_param":{"num_deleted":"0","num_feature":"39","num_nodes":"15","size_leaf_vector":"1"}},{"base_weights":[-3.8550901E-3,-1.5402713E0,2.9871756E-1,-1.2297448E0,-9.433848E0,1.8591122E-1,6.3088593E0,-8.504134E-2,-4.616296E-1,-1.551123E0,-4.456253E-1,-2.2740753E-1,4.530614E-2,1.4085434E-1,1.4644992E0],"categories":[],"categories_nodes":[],"categories_segments":[],"categories_sizes":[],"default_left":[0,0,0,0,0,0,0,0,0,0,0,0,0,0,0],"id":75,"left_children":[1,3,5,7,9,11,13,-1,-1,-1,-1,-1,-1,-1,-1],"loss_changes":[9.069713E2,7.7522266E2,1.1039381E3,3.9430807E2,2.9388696E2,1.0531847E3,1.2048624E3,0E0,0E0,0E0,0E0,0E0,0E0,0E0,0E0],"parents":[2147483647,0,0,1,1,2,2,3,3,4,4,5,5,6,6],"right_children":[2,4,6,8,10,12,14,-1,-1,-1,-1,-1,-1,-1,-1],"split_conditions":[-9.801874E-1,2.2501247E0,2.2501247E0,-4.8063916E-1,-9.366084E-1,-1.0464916E0,-3.9542785E-1,-8.504134E-2,-4.616296E-1,-1.551123E0,-4.456253E-1,-2.2740753E-1,4.530614E-2,1.4085434E-1,1.4644992E0],"split_indices":[33,3,3,16,18,4,11,0,0,0,0,0,0,0,0],"split_type":[0,0,0,0,0,0,0,0,0,0,0,0,0,0,0],"sum_hessian":[1.949E3,3.2E2,1.629E3,3.09E2,1.1E1,1.6E3,2.9E1,2.79E2,3E1,4E0,7E0,1.56E2,1.444E3,1.9E1,1E1],"tree_param":{"num_deleted":"0","num_feature":"39","num_nodes":"15","size_leaf_vector":"1"}},{"base_weights":[-4.0328745E-3,4.33995E-2,-9.210254E0,-7.916999E-3,1.1060222E1,-1.7681092E0,-3.054025E0,-4.774468E-2,9.731579E-2,1.564945E0,-3.334717E-1,-5.2423096E-1,5.037842E-1],"categories":[],"categories_nodes":[],"categories_segments":[],"categories_sizes":[],"default_left":[0,0,0,0,0,0,0,0,0,0,0,0,0],"id":76,"left_children":[1,3,5,7,9,-1,11,-1,-1,-1,-1,-1,-1],"loss_changes":[8.519119E2,1.0974219E3,4.6748566E2,8.908892E2,6.4674133E2,0E0,1.503611E2,0E0,0E0,0E0,0E0,0E0,0E0],"parents":[2147483647,0,0,1,1,2,2,3,3,4,4,6,6],"right_children":[2,4,6,8,10,-1,12,-1,-1,-1,-1,-1,-1],"split_conditions":[1.9027885E0,2.0563095E0,1.7172344E0,1.0621336E-1,2.0738187E0,-1.7681092E0,2.0486476E0,-4.774468E-2,9.731579E-2,1.564945E0,-3.334717E-1,-5.2423096E-1,5.037842E-1],"split_indices":[30,0,9,14,14,0,5,0,0,0,0,0,0],"split_type":[0,0,0,0,0,0,0,0,0,0,0,0,0],"sum_hessian":[1.949E3,1.94E3,9E0,1.932E3,8E0,3E0,6E0,1.307E3,6.25E2,6E0,2E0,5E0,1E0],"tree_param":{"num_deleted":"0","num_feature":"39","num_nodes":"13","size_leaf_vector":"1"}},{"base_weights":[-3.8922431E-3,-9.312049E-2,4.152933E0,1.02576494E-1,-3.1485872E0,2.4726417E0,1.2604915E0,3.4362196E-3,1.2282214E0,-1.8321362E0,-1.6874896E-1,2.0134704E0,-9.9707745E-2],"categories":[],"categories_nodes":[],"categories_segments":[],"categories_sizes":[],"default_left":[0,0,0,0,0,0,0,0,0,0,0,0,0],"id":77,"left_children":[1,3,5,7,9,-1,11,-1,-1,-1,-1,-1,-1],"loss_changes":[7.2365393E2,1.142399E3,2.4086443E3,1.4917405E3,2.5185068E3,0E0,1.5966399E3,0E0,0E0,0E0,0E0,0E0,0E0],"parents":[2147483647,0,0,1,1,2,2,3,3,4,4,6,6],"right_children":[2,4,6,8,10,-1,12,-1,-1,-1,-1,-1,-1],"split_conditions":[1.9651873E0,1.6775405E0,1.1344453E0,2.0515146E0,1.3321128E0,2.4726417E0,-2.5484322E-2,3.4362196E-3,1.2282214E0,-1.8321362E0,-1.6874896E-1,2.0134704E0,-9.9707745E-2],"split_indices":[8,21,33,6,19,0,16,0,0,0,0,0,0],"split_type":[0,0,0,0,0,0,0,0,0,0,0,0,0],"sum_hessian":[1.949E3,1.909E3,4E1,1.795E3,1.14E2,4E0,3.6E1,1.786E3,9E0,9E0,1.05E2,3E0,3.3E1],"tree_param":{"num_deleted":"0","num_feature":"39","num_nodes":"13","size_leaf_vector":"1"}},{"base_weights":[-1.6438332E-3,-1.2033211E0,3.053494E-1,-9.678703E-1,-8.676712E0,1.9897175E-1,5.702703E0,-3.9239183E-1,-5.85847E-2,-1.4263922E0,-4.1001168E-1,3.3318233E-2,-5.361382E-1,1.5000102E-1,1.3958087E0],"categories":[],"categories_nodes":[],"categories_segments":[],"categories_sizes":[],"default_left":[0,0,0,0,0,0,0,0,0,0,0,0,0,0,0],"id":78,"left_children":[1,3,5,7,9,11,13,-1,-1,-1,-1,-1,-1,-1,-1],"loss_changes":[7.197358E2,6.901696E2,8.9110675E2,4.3360294E2,2.4836102E2,1.13983E3,1.01990814E3,0E0,0E0,0E0,0E0,0E0,0E0,0E0,0E0],"parents":[2147483647,0,0,1,1,2,2,3,3,4,4,5,5,6,6],"right_children":[2,4,6,8,10,12,14,-1,-1,-1,-1,-1,-1,-1,-1],"split_conditions":[-9.506556E-1,2.2501247E0,2.2501247E0,-9.6823645E-1,-9.366084E-1,3.1649756E0,-2.694443E-1,-3.9239183E-1,-5.85847E-2,-1.4263922E0,-4.1001168E-1,3.3318233E-2,-5.361382E-1,1.5000102E-1,1.3958087E0],"split_indices":[0,3,3,9,18,12,9,0,0,0,0,0,0,0,0],"split_type":[0,0,0,0,0,0,0,0,0,0,0,0,0,0,0],"sum_hessian":[1.949E3,3.96E2,1.553E3,3.85E2,1.1E1,1.524E3,2.9E1,4.3E1,3.42E2,4E0,7E0,1.489E3,3.5E1,2E1,9E0],"tree_param":{"num_deleted":"0","num_feature":"39","num_nodes":"15","size_leaf_vector":"1"}},{"base_weights":[-2.1213787E-3,-2.5993696E-1,1.6099528E0,-3.12237E-1,1.072287E1,2.7590078E-1,4.2601686E0,-4.079941E-3,-2.3841868E-1,-1.0067383E-1,2.2704163E0,8.906188E-2,-1.1502699E0,8.723647E-1,1.3944201E-1],"categories":[],"categories_nodes":[],"categories_segments":[],"categories_sizes":[],"default_left":[0,0,0,0,0,0,0,0,0,0,0,0,0,0,0],"id":79,"left_children":[1,3,5,7,9,11,13,-1,-1,-1,-1,-1,-1,-1,-1],"loss_changes":[8.108733E2,9.6949036E2,9.49881E2,9.419312E2,1.1471442E3,1.3135377E3,1.1390441E3,0E0,0E0,0E0,0E0,0E0,0E0,0E0,0E0],"parents":[2147483647,0,0,1,1,2,2,3,3,4,4,5,5,6,6],"right_children":[2,4,6,8,10,12,14,-1,-1,-1,-1,-1,-1,-1,-1],"split_conditions":[8.8238525E-1,2.7217371E0,7.0413136E-1,1.5492795E0,1.2327932E0,4.063574E-1,1.3026559E0,-4.079941E-3,-2.3841868E-1,-1.0067383E-1,2.2704163E0,8.906188E-2,-1.1502699E0,8.723647E-1,1.3944201E-1],"split_indices":[4,20,0,38,5,0,8,0,0,0,0,0,0,0,0],"split_type":[0,0,0,0,0,0,0,0,0,0,0,0,0,0,0],"sum_hessian":[1.949E3,1.681E3,2.68E2,1.674E3,7E0,1.79E2,8.9E1,1.481E3,1.93E2,4E0,3E0,1.71E2,8E0,3.4E1,5.5E1],"tree_param":{"num_deleted":"0","num_feature":"39","num_nodes":"15","size_leaf_vector":"1"}},{"base_weights":[-9.498166E-4,-1.1973054E0,2.969908E-1,-1.4200238E0,1.11596155E1,3.546528E-1,-2.2251007E1,-1.6514748E-1,7.3782474E-1,5.2423096E-1,1.4287018E0,4.0396128E-2,-1.5051221E0,9.4326174E-1,-3.595642E0],"categories":[],"categories_nodes":[],"categories_segments":[],"categories_sizes":[],"default_left":[0,0,0,0,0,0,0,0,0,0,0,0,0,0,0],"id":80,"left_children":[1,3,5,7,9,11,13,-1,-1,-1,-1,-1,-1,-1,-1],"loss_changes":[6.954193E2,1.086419E3,2.0387441E3,7.921143E2,5.4643616E1,1.1903595E3,2.0761118E3,0E0,0E0,0E0,0E0,0E0,0E0,0E0,0E0],"parents":[2147483647,0,0,1,1,2,2,3,3,4,4,5,5,6,6],"right_children":[2,4,6,8,10,12,14,-1,-1,-1,-1,-1,-1,-1,-1],"split_conditions":[-6.64324E-1,2.0486476E0,1.9038396E0,2.0274997E0,-1.5145913E0,2.1724315E0,-6.164286E-1,-1.6514748E-1,7.3782474E-1,5.2423096E-1,1.4287018E0,4.0396128E-2,-1.5051221E0,9.4326174E-1,-3.595642E0],"split_indices":[4,5,37,7,4,9,4,0,0,0,0,0,0,0,0],"split_type":[0,0,0,0,0,0,0,0,0,0,0,0,0,0,0],"sum_hessian":[1.949E3,3.88E2,1.561E3,3.82E2,6E0,1.558E3,3E0,3.73E2,9E0,3E0,3E0,1.554E3,4E0,1E0,2E0],"tree_param":{"num_deleted":"0","num_feature":"39","num_nodes":"15","size_leaf_vector":"1"}},{"base_weights":[-1.6755402E-3,-1.1566998E-1,3.0167923E0,4.6858914E-2,-7.7890687E0,1.0722026E0,1.477157E1,-2.9958576E-2,1.7936952E-1,-2.4793294E-1,-1.5266861E0,4.9029723E-1,-3.4560168E-1,3.5578327E0,5.1225895E-1],"categories":[],"categories_nodes":[],"categories_segments":[],"categories_sizes":[],"default_left":[0,0,0,0,0,0,0,0,0,0,0,0,0,0,0],"id":81,"left_children":[1,3,5,7,9,11,13,-1,-1,-1,-1,-1,-1,-1,-1],"loss_changes":[6.7132166E2,2.3450054E3,1.6070957E3,1.1152828E3,1.5106484E3,1.0924318E3,1.8253872E3,0E0,0E0,0E0,0E0,0E0,0E0,0E0,0E0],"parents":[2147483647,0,0,1,1,2,2,3,3,4,4,5,5,6,6],"right_children":[2,4,6,8,10,12,14,-1,-1,-1,-1,-1,-1,-1,-1],"split_conditions":[2.0560064E0,1.982614E0,1.3606303E0,1.1901945E0,1.4730332E0,1.3009036E0,-6.591715E-1,-2.9958576E-2,1.7936952E-1,-2.4793294E-1,-1.5266861E0,4.9029723E-1,-3.4560168E-1,3.5578327E0,5.1225895E-1],"split_indices":[10,10,5,5,5,28,3,0,0,0,0,0,0,0,0],"split_type":[0,0,0,0,0,0,0,0,0,0,0,0,0,0,0],"sum_hessian":[1.949E3,1.879E3,7E1,1.841E3,3.8E1,6.1E1,9E0,1.537E3,3.04E2,2.3E1,1.5E1,3.3E1,2.8E1,2E0,7E0],"tree_param":{"num_deleted":"0","num_feature":"39","num_nodes":"15","size_leaf_vector":"1"}},{"base_weights":[-1.743258E-4,4.298153E-2,-8.376709E0,-1.10131025E-1,3.1214082E0,9.5581055E-2,-1.2021345E1,1.0741356E-2,-2.8097233E-1,2.771464E0,2.2669517E-1,-3.0856934E-1,4.8197022E-1,-2.2654621E-1,-1.5470606E0],"categories":[],"categories_nodes":[],"categories_segments":[],"categories_sizes":[],"default_left":[0,0,0,0,0,0,0,0,0,0,0,0,0,0,0],"id":82,"left_children":[1,3,5,7,9,11,13,-1,-1,-1,-1,-1,-1,-1,-1],"loss_changes":[7.052783E2,9.1522595E2,3.0993323E2,1.086773E3,1.8704469E3,7.498702E1,2.0050598E2,0E0,0E0,0E0,0E0,0E0,0E0,0E0,0E0],"parents":[2147483647,0,0,1,1,2,2,3,3,4,4,5,5,6,6],"right_children":[2,4,6,8,10,12,14,-1,-1,-1,-1,-1,-1,-1,-1],"split_conditions":[1.9027885E0,1.720774E0,1.1052605E0,1.430695E0,-3.1080684E-2,2.0486476E0,1.7575972E0,1.0741356E-2,-2.8097233E-1,2.771464E0,2.2669517E-1,-3.0856934E-1,4.8197022E-1,-2.2654621E-1,-1.5470606E0],"split_indices":[17,36,18,7,18,5,5,0,0,0,0,0,0,0,0],"split_type":[0,0,0,0,0,0,0,0,0,0,0,0,0,0,0],"sum_hessian":[1.949E3,1.94E3,9E0,1.849E3,9.1E1,3E0,6E0,1.712E3,1.37E2,2E0,8.9E1,2E0,1E0,2E0,4E0],"tree_param":{"num_deleted":"0","num_feature":"39","num_nodes":"15","size_leaf_vector":"1"}},{"base_weights":[4.2369353E-4,-8.578213E0,4.018029E-2,-3.0157063E0,-1.4777421E0,-1.418446E-1,2.2970119E0,-2.795868E-2,-5.658631E-1,-1.889803E-2,9.248684E-1,2.7306455E-1,-1.3671235E0],"categories":[],"categories_nodes":[],"categories_segments":[],"categories_sizes":[],"default_left":[0,0,0,0,0,0,0,0,0,0,0,0,0],"id":83,"left_children":[1,3,5,7,-1,9,11,-1,-1,-1,-1,-1,-1],"loss_changes":[6.6540656E2,2.657838E2,7.9809845E2,4.180606E1,0E0,7.975952E2,1.0413647E3,0E0,0E0,0E0,0E0,0E0,0E0],"parents":[2147483647,0,0,1,1,2,2,3,3,5,5,6,6],"right_children":[2,4,6,8,-1,10,12,-1,-1,-1,-1,-1,-1],"split_conditions":[-1.0830419E0,-1.0630175E0,1.2258824E0,-7.762638E-1,-1.4777421E0,2.7217371E0,1.8798487E0,-2.795868E-2,-5.658631E-1,-1.889803E-2,9.248684E-1,2.7306455E-1,-1.3671235E0],"split_indices":[20,0,4,4,0,20,0,0,0,0,0,0,0],"split_type":[0,0,0,0,0,0,0,0,0,0,0,0,0],"sum_hessian":[1.949E3,8E0,1.941E3,5E0,3E0,1.797E3,1.44E2,3E0,2E0,1.789E3,8E0,1.41E2,3E0],"tree_param":{"num_deleted":"0","num_feature":"39","num_nodes":"13","size_leaf_vector":"1"}},{"base_weights":[-7.6678937E-4,-8.447668E-2,3.898908E0,9.380464E-2,-2.8680313E0,2.4283388E0,1.6505705E0,-2.703756E-2,2.1530989E-1,2.8070042E-1,-6.69207E-1,1.2041273E0,-1.5216593E-1],"categories":[],"categories_nodes":[],"categories_segments":[],"categories_sizes":[],"default_left":[0,0,0,0,0,0,0,0,0,0,0,0,0],"id":84,"left_children":[1,3,5,7,9,-1,11,-1,-1,-1,-1,-1,-1],"loss_changes":[6.3689E2,9.481176E2,1.8389973E3,1.3474998E3,2.5144634E3,0E0,1.2708671E3,0E0,0E0,0E0,0E0,0E0,0E0],"parents":[2147483647,0,0,1,1,2,2,3,3,4,4,6,6],"right_children":[2,4,6,8,10,-1,12,-1,-1,-1,-1,-1,-1],"split_conditions":[1.9651873E0,1.6775405E0,1.1268194E0,1.1809264E0,-4.7094372E-1,2.4283388E0,3.5152256E-1,-2.703756E-2,2.1530989E-1,2.8070042E-1,-6.69207E-1,1.2041273E0,-1.5216593E-1],"split_indices":[8,32,11,11,4,0,20,0,0,0,0,0,0],"split_type":[0,0,0,0,0,0,0,0,0,0,0,0,0],"sum_hessian":[1.949E3,1.909E3,4E1,1.795E3,1.14E2,3E0,3.7E1,1.526E3,2.69E2,4.6E1,6.8E1,8E0,2.9E1],"tree_param":{"num_deleted":"0","num_feature":"39","num_nodes":"13","size_leaf_vector":"1"}},{"base_weights":[9.831669E-4,-7.135791E-2,4.2055044E0,-6.485545E-4,-1.5069526E1,-2.0155168E0,5.5966244E0,-6.329873E-3,1.4902344E0,4.7379762E-1,-4.10134E0,1.6823677E0,1.7801026E-1],"categories":[],"categories_nodes":[],"categories_segments":[],"categories_sizes":[],"default_left":[0,0,0,0,0,0,0,0,0,0,0,0,0],"id":85,"left_children":[1,3,5,7,9,-1,11,-1,-1,-1,-1,-1,-1],"loss_changes":[5.934113E2,2.03405E3,1.2311251E3,1.7842627E3,4.81927E3,0E0,1.3411975E3,0E0,0E0,0E0,0E0,0E0,0E0],"parents":[2147483647,0,0,1,1,2,2,3,3,4,4,6,6],"right_children":[2,4,6,8,10,-1,12,-1,-1,-1,-1,-1,-1],"split_conditions":[2.9109986E0,1.8689659E0,-4.3734258E-1,2.0743418E0,1.2577739E0,-2.0155168E0,-8.225292E-1,-6.329873E-3,1.4902344E0,4.7379762E-1,-4.10134E0,1.6823677E0,1.7801026E-1],"split_indices":[16,21,8,6,0,0,26,0,0,0,0,0,0],"split_type":[0,0,0,0,0,0,0,0,0,0,0,0,0],"sum_hessian":[1.949E3,1.917E3,3.2E1,1.909E3,8E0,1E0,3.1E1,1.902E3,7E0,5E0,3E0,7E0,2.4E1],"tree_param":{"num_deleted":"0","num_feature":"39","num_nodes":"13","size_leaf_vector":"1"}},{"base_weights":[-2.8636443E-4,-7.7730477E-1,3.7903634E-1,-8.679669E-1,